digraph Tree {
node [shape=box, style="filled, rounded", color="black", fontname=helvetica] ;
edge [fontname=helvetica] ;
0 [label="preco <= 59999.074\ngini = 0.487\nsamples = 7500\nvalue = [3150, 4350]\nclass = sim", fillcolor="#399de546"] ;
1 [label="preco <= 40070.154\ngini = 0.202\nsamples = 3248\nvalue = [370, 2878]\nclass = sim", fillcolor="#399de5de"] ;
0 -> 1 [labeldistance=2.5, labelangle=45, headlabel="True"] ;
2 [label="gini = 0.0\nsamples = 1441\nvalue = [0, 1441]\nclass = sim", fillcolor="#399de5ff"] ;
1 -> 2 ;
3 [label="preco <= 40723.646\ngini = 0.326\nsamples = 1807\nvalue = [370, 1437]\nclass = sim", fillcolor="#399de5bd"] ;
1 -> 3 ;
4 [label="preco <= 40644.25\ngini = 0.441\nsamples = 61\nvalue = [20, 41]\nclass = sim", fillcolor="#399de583"] ;
3 -> 4 ;
5 [label="idade_do_modelo <= 19.5\ngini = 0.397\nsamples = 55\nvalue = [15, 40]\nclass = sim", fillcolor="#399de59f"] ;
4 -> 5 ;
6 [label="preco <= 40086.025\ngini = 0.346\nsamples = 45\nvalue = [10, 35]\nclass = sim", fillcolor="#399de5b6"] ;
5 -> 6 ;
7 [label="gini = 0.0\nsamples = 1\nvalue = [1, 0]\nclass = não", fillcolor="#e58139ff"] ;
6 -> 7 ;
8 [label="preco <= 40171.676\ngini = 0.325\nsamples = 44\nvalue = [9, 35]\nclass = sim", fillcolor="#399de5bd"] ;
6 -> 8 ;
9 [label="gini = 0.0\nsamples = 8\nvalue = [0, 8]\nclass = sim", fillcolor="#399de5ff"] ;
8 -> 9 ;
10 [label="preco <= 40200.314\ngini = 0.375\nsamples = 36\nvalue = [9, 27]\nclass = sim", fillcolor="#399de5aa"] ;
8 -> 10 ;
11 [label="gini = 0.0\nsamples = 2\nvalue = [2, 0]\nclass = não", fillcolor="#e58139ff"] ;
10 -> 11 ;
12 [label="km_por_ano <= 26129.244\ngini = 0.327\nsamples = 34\nvalue = [7, 27]\nclass = sim", fillcolor="#399de5bd"] ;
10 -> 12 ;
13 [label="preco <= 40507.455\ngini = 0.236\nsamples = 22\nvalue = [3, 19]\nclass = sim", fillcolor="#399de5d7"] ;
12 -> 13 ;
14 [label="idade_do_modelo <= 12.5\ngini = 0.117\nsamples = 16\nvalue = [1, 15]\nclass = sim", fillcolor="#399de5ee"] ;
13 -> 14 ;
15 [label="idade_do_modelo <= 11.5\ngini = 0.444\nsamples = 3\nvalue = [1, 2]\nclass = sim", fillcolor="#399de57f"] ;
14 -> 15 ;
16 [label="gini = 0.0\nsamples = 2\nvalue = [0, 2]\nclass = sim", fillcolor="#399de5ff"] ;
15 -> 16 ;
17 [label="gini = 0.0\nsamples = 1\nvalue = [1, 0]\nclass = não", fillcolor="#e58139ff"] ;
15 -> 17 ;
18 [label="gini = 0.0\nsamples = 13\nvalue = [0, 13]\nclass = sim", fillcolor="#399de5ff"] ;
14 -> 18 ;
19 [label="preco <= 40513.021\ngini = 0.444\nsamples = 6\nvalue = [2, 4]\nclass = sim", fillcolor="#399de57f"] ;
13 -> 19 ;
20 [label="gini = 0.0\nsamples = 1\nvalue = [1, 0]\nclass = não", fillcolor="#e58139ff"] ;
19 -> 20 ;
21 [label="preco <= 40590.416\ngini = 0.32\nsamples = 5\nvalue = [1, 4]\nclass = sim", fillcolor="#399de5bf"] ;
19 -> 21 ;
22 [label="gini = 0.0\nsamples = 3\nvalue = [0, 3]\nclass = sim", fillcolor="#399de5ff"] ;
21 -> 22 ;
23 [label="preco <= 40628.885\ngini = 0.5\nsamples = 2\nvalue = [1, 1]\nclass = não", fillcolor="#e5813900"] ;
21 -> 23 ;
24 [label="gini = 0.0\nsamples = 1\nvalue = [1, 0]\nclass = não", fillcolor="#e58139ff"] ;
23 -> 24 ;
25 [label="gini = 0.0\nsamples = 1\nvalue = [0, 1]\nclass = sim", fillcolor="#399de5ff"] ;
23 -> 25 ;
26 [label="km_por_ano <= 27311.305\ngini = 0.444\nsamples = 12\nvalue = [4, 8]\nclass = sim", fillcolor="#399de57f"] ;
12 -> 26 ;
27 [label="gini = 0.0\nsamples = 2\nvalue = [2, 0]\nclass = não", fillcolor="#e58139ff"] ;
26 -> 27 ;
28 [label="preco <= 40402.98\ngini = 0.32\nsamples = 10\nvalue = [2, 8]\nclass = sim", fillcolor="#399de5bf"] ;
26 -> 28 ;
29 [label="idade_do_modelo <= 14.0\ngini = 0.48\nsamples = 5\nvalue = [2, 3]\nclass = sim", fillcolor="#399de555"] ;
28 -> 29 ;
30 [label="gini = 0.0\nsamples = 2\nvalue = [2, 0]\nclass = não", fillcolor="#e58139ff"] ;
29 -> 30 ;
31 [label="gini = 0.0\nsamples = 3\nvalue = [0, 3]\nclass = sim", fillcolor="#399de5ff"] ;
29 -> 31 ;
32 [label="gini = 0.0\nsamples = 5\nvalue = [0, 5]\nclass = sim", fillcolor="#399de5ff"] ;
28 -> 32 ;
33 [label="km_por_ano <= 16198.812\ngini = 0.5\nsamples = 10\nvalue = [5, 5]\nclass = não", fillcolor="#e5813900"] ;
5 -> 33 ;
34 [label="gini = 0.0\nsamples = 2\nvalue = [0, 2]\nclass = sim", fillcolor="#399de5ff"] ;
33 -> 34 ;
35 [label="preco <= 40430.869\ngini = 0.469\nsamples = 8\nvalue = [5, 3]\nclass = não", fillcolor="#e5813966"] ;
33 -> 35 ;
36 [label="preco <= 40208.02\ngini = 0.48\nsamples = 5\nvalue = [2, 3]\nclass = sim", fillcolor="#399de555"] ;
35 -> 36 ;
37 [label="gini = 0.0\nsamples = 2\nvalue = [2, 0]\nclass = não", fillcolor="#e58139ff"] ;
36 -> 37 ;
38 [label="gini = 0.0\nsamples = 3\nvalue = [0, 3]\nclass = sim", fillcolor="#399de5ff"] ;
36 -> 38 ;
39 [label="gini = 0.0\nsamples = 3\nvalue = [3, 0]\nclass = não", fillcolor="#e58139ff"] ;
35 -> 39 ;
40 [label="preco <= 40694.486\ngini = 0.278\nsamples = 6\nvalue = [5, 1]\nclass = não", fillcolor="#e58139cc"] ;
4 -> 40 ;
41 [label="gini = 0.0\nsamples = 4\nvalue = [4, 0]\nclass = não", fillcolor="#e58139ff"] ;
40 -> 41 ;
42 [label="km_por_ano <= 27095.652\ngini = 0.5\nsamples = 2\nvalue = [1, 1]\nclass = não", fillcolor="#e5813900"] ;
40 -> 42 ;
43 [label="gini = 0.0\nsamples = 1\nvalue = [0, 1]\nclass = sim", fillcolor="#399de5ff"] ;
42 -> 43 ;
44 [label="gini = 0.0\nsamples = 1\nvalue = [1, 0]\nclass = não", fillcolor="#e58139ff"] ;
42 -> 44 ;
45 [label="km_por_ano <= 35931.734\ngini = 0.321\nsamples = 1746\nvalue = [350, 1396]\nclass = sim", fillcolor="#399de5bf"] ;
3 -> 45 ;
46 [label="km_por_ano <= 6267.575\ngini = 0.313\nsamples = 1611\nvalue = [313, 1298]\nclass = sim", fillcolor="#399de5c2"] ;
45 -> 46 ;
47 [label="idade_do_modelo <= 11.5\ngini = 0.444\nsamples = 3\nvalue = [2, 1]\nclass = não", fillcolor="#e581397f"] ;
46 -> 47 ;
48 [label="gini = 0.0\nsamples = 1\nvalue = [0, 1]\nclass = sim", fillcolor="#399de5ff"] ;
47 -> 48 ;
49 [label="gini = 0.0\nsamples = 2\nvalue = [2, 0]\nclass = não", fillcolor="#e58139ff"] ;
47 -> 49 ;
50 [label="idade_do_modelo <= 17.5\ngini = 0.312\nsamples = 1608\nvalue = [311, 1297]\nclass = sim", fillcolor="#399de5c2"] ;
46 -> 50 ;
51 [label="idade_do_modelo <= 11.5\ngini = 0.329\nsamples = 1032\nvalue = [214, 818]\nclass = sim", fillcolor="#399de5bc"] ;
50 -> 51 ;
52 [label="idade_do_modelo <= 4.5\ngini = 0.287\nsamples = 380\nvalue = [66, 314]\nclass = sim", fillcolor="#399de5c9"] ;
51 -> 52 ;
53 [label="preco <= 58230.695\ngini = 0.43\nsamples = 32\nvalue = [10, 22]\nclass = sim", fillcolor="#399de58b"] ;
52 -> 53 ;
54 [label="km_por_ano <= 28505.435\ngini = 0.459\nsamples = 28\nvalue = [10, 18]\nclass = sim", fillcolor="#399de571"] ;
53 -> 54 ;
55 [label="km_por_ano <= 26225.0\ngini = 0.486\nsamples = 24\nvalue = [10, 14]\nclass = sim", fillcolor="#399de549"] ;
54 -> 55 ;
56 [label="idade_do_modelo <= 3.5\ngini = 0.463\nsamples = 22\nvalue = [8, 14]\nclass = sim", fillcolor="#399de56d"] ;
55 -> 56 ;
57 [label="preco <= 41880.365\ngini = 0.355\nsamples = 13\nvalue = [3, 10]\nclass = sim", fillcolor="#399de5b3"] ;
56 -> 57 ;
58 [label="gini = 0.0\nsamples = 1\nvalue = [1, 0]\nclass = não", fillcolor="#e58139ff"] ;
57 -> 58 ;
59 [label="km_por_ano <= 22767.333\ngini = 0.278\nsamples = 12\nvalue = [2, 10]\nclass = sim", fillcolor="#399de5cc"] ;
57 -> 59 ;
60 [label="preco <= 44733.98\ngini = 0.18\nsamples = 10\nvalue = [1, 9]\nclass = sim", fillcolor="#399de5e3"] ;
59 -> 60 ;
61 [label="preco <= 43371.709\ngini = 0.375\nsamples = 4\nvalue = [1, 3]\nclass = sim", fillcolor="#399de5aa"] ;
60 -> 61 ;
62 [label="gini = 0.0\nsamples = 3\nvalue = [0, 3]\nclass = sim", fillcolor="#399de5ff"] ;
61 -> 62 ;
63 [label="gini = 0.0\nsamples = 1\nvalue = [1, 0]\nclass = não", fillcolor="#e58139ff"] ;
61 -> 63 ;
64 [label="gini = 0.0\nsamples = 6\nvalue = [0, 6]\nclass = sim", fillcolor="#399de5ff"] ;
60 -> 64 ;
65 [label="km_por_ano <= 24169.872\ngini = 0.5\nsamples = 2\nvalue = [1, 1]\nclass = não", fillcolor="#e5813900"] ;
59 -> 65 ;
66 [label="gini = 0.0\nsamples = 1\nvalue = [1, 0]\nclass = não", fillcolor="#e58139ff"] ;
65 -> 66 ;
67 [label="gini = 0.0\nsamples = 1\nvalue = [0, 1]\nclass = sim", fillcolor="#399de5ff"] ;
65 -> 67 ;
68 [label="km_por_ano <= 18733.522\ngini = 0.494\nsamples = 9\nvalue = [5, 4]\nclass = não", fillcolor="#e5813933"] ;
56 -> 68 ;
69 [label="gini = 0.0\nsamples = 2\nvalue = [2, 0]\nclass = não", fillcolor="#e58139ff"] ;
68 -> 69 ;
70 [label="preco <= 51016.33\ngini = 0.49\nsamples = 7\nvalue = [3, 4]\nclass = sim", fillcolor="#399de540"] ;
68 -> 70 ;
71 [label="gini = 0.0\nsamples = 2\nvalue = [0, 2]\nclass = sim", fillcolor="#399de5ff"] ;
70 -> 71 ;
72 [label="km_por_ano <= 20346.886\ngini = 0.48\nsamples = 5\nvalue = [3, 2]\nclass = não", fillcolor="#e5813955"] ;
70 -> 72 ;
73 [label="gini = 0.0\nsamples = 1\nvalue = [0, 1]\nclass = sim", fillcolor="#399de5ff"] ;
72 -> 73 ;
74 [label="km_por_ano <= 24812.805\ngini = 0.375\nsamples = 4\nvalue = [3, 1]\nclass = não", fillcolor="#e58139aa"] ;
72 -> 74 ;
75 [label="gini = 0.0\nsamples = 3\nvalue = [3, 0]\nclass = não", fillcolor="#e58139ff"] ;
74 -> 75 ;
76 [label="gini = 0.0\nsamples = 1\nvalue = [0, 1]\nclass = sim", fillcolor="#399de5ff"] ;
74 -> 76 ;
77 [label="gini = 0.0\nsamples = 2\nvalue = [2, 0]\nclass = não", fillcolor="#e58139ff"] ;
55 -> 77 ;
78 [label="gini = 0.0\nsamples = 4\nvalue = [0, 4]\nclass = sim", fillcolor="#399de5ff"] ;
54 -> 78 ;
79 [label="gini = 0.0\nsamples = 4\nvalue = [0, 4]\nclass = sim", fillcolor="#399de5ff"] ;
53 -> 79 ;
80 [label="preco <= 43059.43\ngini = 0.27\nsamples = 348\nvalue = [56, 292]\nclass = sim", fillcolor="#399de5ce"] ;
52 -> 80 ;
81 [label="km_por_ano <= 19638.776\ngini = 0.089\nsamples = 43\nvalue = [2, 41]\nclass = sim", fillcolor="#399de5f3"] ;
80 -> 81 ;
82 [label="km_por_ano <= 18727.89\ngini = 0.219\nsamples = 16\nvalue = [2, 14]\nclass = sim", fillcolor="#399de5db"] ;
81 -> 82 ;
83 [label="gini = 0.0\nsamples = 13\nvalue = [0, 13]\nclass = sim", fillcolor="#399de5ff"] ;
82 -> 83 ;
84 [label="idade_do_modelo <= 7.0\ngini = 0.444\nsamples = 3\nvalue = [2, 1]\nclass = não", fillcolor="#e581397f"] ;
82 -> 84 ;
85 [label="gini = 0.0\nsamples = 1\nvalue = [0, 1]\nclass = sim", fillcolor="#399de5ff"] ;
84 -> 85 ;
86 [label="gini = 0.0\nsamples = 2\nvalue = [2, 0]\nclass = não", fillcolor="#e58139ff"] ;
84 -> 86 ;
87 [label="gini = 0.0\nsamples = 27\nvalue = [0, 27]\nclass = sim", fillcolor="#399de5ff"] ;
81 -> 87 ;
88 [label="preco <= 43065.609\ngini = 0.291\nsamples = 305\nvalue = [54, 251]\nclass = sim", fillcolor="#399de5c8"] ;
80 -> 88 ;
89 [label="gini = 0.0\nsamples = 1\nvalue = [1, 0]\nclass = não", fillcolor="#e58139ff"] ;
88 -> 89 ;
90 [label="km_por_ano <= 24878.787\ngini = 0.288\nsamples = 304\nvalue = [53, 251]\nclass = sim", fillcolor="#399de5c9"] ;
88 -> 90 ;
91 [label="km_por_ano <= 16086.963\ngini = 0.247\nsamples = 201\nvalue = [29, 172]\nclass = sim", fillcolor="#399de5d4"] ;
90 -> 91 ;
92 [label="idade_do_modelo <= 5.5\ngini = 0.346\nsamples = 72\nvalue = [16, 56]\nclass = sim", fillcolor="#399de5b6"] ;
91 -> 92 ;
93 [label="preco <= 51693.24\ngini = 0.48\nsamples = 5\nvalue = [3, 2]\nclass = não", fillcolor="#e5813955"] ;
92 -> 93 ;
94 [label="km_por_ano <= 14740.75\ngini = 0.375\nsamples = 4\nvalue = [3, 1]\nclass = não", fillcolor="#e58139aa"] ;
93 -> 94 ;
95 [label="gini = 0.0\nsamples = 1\nvalue = [0, 1]\nclass = sim", fillcolor="#399de5ff"] ;
94 -> 95 ;
96 [label="gini = 0.0\nsamples = 3\nvalue = [3, 0]\nclass = não", fillcolor="#e58139ff"] ;
94 -> 96 ;
97 [label="gini = 0.0\nsamples = 1\nvalue = [0, 1]\nclass = sim", fillcolor="#399de5ff"] ;
93 -> 97 ;
98 [label="preco <= 59024.115\ngini = 0.313\nsamples = 67\nvalue = [13, 54]\nclass = sim", fillcolor="#399de5c2"] ;
92 -> 98 ;
99 [label="preco <= 46854.16\ngini = 0.298\nsamples = 66\nvalue = [12, 54]\nclass = sim", fillcolor="#399de5c6"] ;
98 -> 99 ;
100 [label="preco <= 44222.936\ngini = 0.172\nsamples = 21\nvalue = [2, 19]\nclass = sim", fillcolor="#399de5e4"] ;
99 -> 100 ;
101 [label="preco <= 44018.205\ngini = 0.444\nsamples = 3\nvalue = [1, 2]\nclass = sim", fillcolor="#399de57f"] ;
100 -> 101 ;
102 [label="gini = 0.0\nsamples = 2\nvalue = [0, 2]\nclass = sim", fillcolor="#399de5ff"] ;
101 -> 102 ;
103 [label="gini = 0.0\nsamples = 1\nvalue = [1, 0]\nclass = não", fillcolor="#e58139ff"] ;
101 -> 103 ;
104 [label="idade_do_modelo <= 8.5\ngini = 0.105\nsamples = 18\nvalue = [1, 17]\nclass = sim", fillcolor="#399de5f0"] ;
100 -> 104 ;
105 [label="preco <= 45925.291\ngini = 0.278\nsamples = 6\nvalue = [1, 5]\nclass = sim", fillcolor="#399de5cc"] ;
104 -> 105 ;
106 [label="preco <= 45569.041\ngini = 0.444\nsamples = 3\nvalue = [1, 2]\nclass = sim", fillcolor="#399de57f"] ;
105 -> 106 ;
107 [label="gini = 0.0\nsamples = 2\nvalue = [0, 2]\nclass = sim", fillcolor="#399de5ff"] ;
106 -> 107 ;
108 [label="gini = 0.0\nsamples = 1\nvalue = [1, 0]\nclass = não", fillcolor="#e58139ff"] ;
106 -> 108 ;
109 [label="gini = 0.0\nsamples = 3\nvalue = [0, 3]\nclass = sim", fillcolor="#399de5ff"] ;
105 -> 109 ;
110 [label="gini = 0.0\nsamples = 12\nvalue = [0, 12]\nclass = sim", fillcolor="#399de5ff"] ;
104 -> 110 ;
111 [label="preco <= 49699.006\ngini = 0.346\nsamples = 45\nvalue = [10, 35]\nclass = sim", fillcolor="#399de5b6"] ;
99 -> 111 ;
112 [label="preco <= 48297.844\ngini = 0.444\nsamples = 6\nvalue = [4, 2]\nclass = não", fillcolor="#e581397f"] ;
111 -> 112 ;
113 [label="idade_do_modelo <= 9.5\ngini = 0.444\nsamples = 3\nvalue = [1, 2]\nclass = sim", fillcolor="#399de57f"] ;
112 -> 113 ;
114 [label="gini = 0.0\nsamples = 2\nvalue = [0, 2]\nclass = sim", fillcolor="#399de5ff"] ;
113 -> 114 ;
115 [label="gini = 0.0\nsamples = 1\nvalue = [1, 0]\nclass = não", fillcolor="#e58139ff"] ;
113 -> 115 ;
116 [label="gini = 0.0\nsamples = 3\nvalue = [3, 0]\nclass = não", fillcolor="#e58139ff"] ;
112 -> 116 ;
117 [label="km_por_ano <= 15388.509\ngini = 0.26\nsamples = 39\nvalue = [6, 33]\nclass = sim", fillcolor="#399de5d1"] ;
111 -> 117 ;
118 [label="km_por_ano <= 15358.736\ngini = 0.291\nsamples = 34\nvalue = [6, 28]\nclass = sim", fillcolor="#399de5c8"] ;
117 -> 118 ;
119 [label="preco <= 50031.98\ngini = 0.257\nsamples = 33\nvalue = [5, 28]\nclass = sim", fillcolor="#399de5d1"] ;
118 -> 119 ;
120 [label="km_por_ano <= 14203.23\ngini = 0.5\nsamples = 2\nvalue = [1, 1]\nclass = não", fillcolor="#e5813900"] ;
119 -> 120 ;
121 [label="gini = 0.0\nsamples = 1\nvalue = [1, 0]\nclass = não", fillcolor="#e58139ff"] ;
120 -> 121 ;
122 [label="gini = 0.0\nsamples = 1\nvalue = [0, 1]\nclass = sim", fillcolor="#399de5ff"] ;
120 -> 122 ;
123 [label="preco <= 52108.326\ngini = 0.225\nsamples = 31\nvalue = [4, 27]\nclass = sim", fillcolor="#399de5d9"] ;
119 -> 123 ;
124 [label="gini = 0.0\nsamples = 8\nvalue = [0, 8]\nclass = sim", fillcolor="#399de5ff"] ;
123 -> 124 ;
125 [label="preco <= 52537.451\ngini = 0.287\nsamples = 23\nvalue = [4, 19]\nclass = sim", fillcolor="#399de5c9"] ;
123 -> 125 ;
126 [label="gini = 0.0\nsamples = 1\nvalue = [1, 0]\nclass = não", fillcolor="#e58139ff"] ;
125 -> 126 ;
127 [label="idade_do_modelo <= 6.5\ngini = 0.236\nsamples = 22\nvalue = [3, 19]\nclass = sim", fillcolor="#399de5d7"] ;
125 -> 127 ;
128 [label="km_por_ano <= 12795.058\ngini = 0.5\nsamples = 2\nvalue = [1, 1]\nclass = não", fillcolor="#e5813900"] ;
127 -> 128 ;
129 [label="gini = 0.0\nsamples = 1\nvalue = [0, 1]\nclass = sim", fillcolor="#399de5ff"] ;
128 -> 129 ;
130 [label="gini = 0.0\nsamples = 1\nvalue = [1, 0]\nclass = não", fillcolor="#e58139ff"] ;
128 -> 130 ;
131 [label="preco <= 57173.885\ngini = 0.18\nsamples = 20\nvalue = [2, 18]\nclass = sim", fillcolor="#399de5e3"] ;
127 -> 131 ;
132 [label="preco <= 57058.645\ngini = 0.245\nsamples = 14\nvalue = [2, 12]\nclass = sim", fillcolor="#399de5d4"] ;
131 -> 132 ;
133 [label="km_por_ano <= 14641.775\ngini = 0.142\nsamples = 13\nvalue = [1, 12]\nclass = sim", fillcolor="#399de5ea"] ;
132 -> 133 ;
134 [label="gini = 0.0\nsamples = 10\nvalue = [0, 10]\nclass = sim", fillcolor="#399de5ff"] ;
133 -> 134 ;
135 [label="km_por_ano <= 14931.457\ngini = 0.444\nsamples = 3\nvalue = [1, 2]\nclass = sim", fillcolor="#399de57f"] ;
133 -> 135 ;
136 [label="gini = 0.0\nsamples = 1\nvalue = [1, 0]\nclass = não", fillcolor="#e58139ff"] ;
135 -> 136 ;
137 [label="gini = 0.0\nsamples = 2\nvalue = [0, 2]\nclass = sim", fillcolor="#399de5ff"] ;
135 -> 137 ;
138 [label="gini = 0.0\nsamples = 1\nvalue = [1, 0]\nclass = não", fillcolor="#e58139ff"] ;
132 -> 138 ;
139 [label="gini = 0.0\nsamples = 6\nvalue = [0, 6]\nclass = sim", fillcolor="#399de5ff"] ;
131 -> 139 ;
140 [label="gini = 0.0\nsamples = 1\nvalue = [1, 0]\nclass = não", fillcolor="#e58139ff"] ;
118 -> 140 ;
141 [label="gini = 0.0\nsamples = 5\nvalue = [0, 5]\nclass = sim", fillcolor="#399de5ff"] ;
117 -> 141 ;
142 [label="gini = 0.0\nsamples = 1\nvalue = [1, 0]\nclass = não", fillcolor="#e58139ff"] ;
98 -> 142 ;
143 [label="preco <= 53747.77\ngini = 0.181\nsamples = 129\nvalue = [13, 116]\nclass = sim", fillcolor="#399de5e2"] ;
91 -> 143 ;
144 [label="preco <= 44174.82\ngini = 0.074\nsamples = 78\nvalue = [3, 75]\nclass = sim", fillcolor="#399de5f5"] ;
143 -> 144 ;
145 [label="preco <= 44028.396\ngini = 0.346\nsamples = 9\nvalue = [2, 7]\nclass = sim", fillcolor="#399de5b6"] ;
144 -> 145 ;
146 [label="idade_do_modelo <= 9.0\ngini = 0.219\nsamples = 8\nvalue = [1, 7]\nclass = sim", fillcolor="#399de5db"] ;
145 -> 146 ;
147 [label="gini = 0.0\nsamples = 5\nvalue = [0, 5]\nclass = sim", fillcolor="#399de5ff"] ;
146 -> 147 ;
148 [label="km_por_ano <= 20128.82\ngini = 0.444\nsamples = 3\nvalue = [1, 2]\nclass = sim", fillcolor="#399de57f"] ;
146 -> 148 ;
149 [label="gini = 0.0\nsamples = 2\nvalue = [0, 2]\nclass = sim", fillcolor="#399de5ff"] ;
148 -> 149 ;
150 [label="gini = 0.0\nsamples = 1\nvalue = [1, 0]\nclass = não", fillcolor="#e58139ff"] ;
148 -> 150 ;
151 [label="gini = 0.0\nsamples = 1\nvalue = [1, 0]\nclass = não", fillcolor="#e58139ff"] ;
145 -> 151 ;
152 [label="preco <= 45335.865\ngini = 0.029\nsamples = 69\nvalue = [1, 68]\nclass = sim", fillcolor="#399de5fb"] ;
144 -> 152 ;
153 [label="preco <= 45243.104\ngini = 0.165\nsamples = 11\nvalue = [1, 10]\nclass = sim", fillcolor="#399de5e6"] ;
152 -> 153 ;
154 [label="gini = 0.0\nsamples = 10\nvalue = [0, 10]\nclass = sim", fillcolor="#399de5ff"] ;
153 -> 154 ;
155 [label="gini = 0.0\nsamples = 1\nvalue = [1, 0]\nclass = não", fillcolor="#e58139ff"] ;
153 -> 155 ;
156 [label="gini = 0.0\nsamples = 58\nvalue = [0, 58]\nclass = sim", fillcolor="#399de5ff"] ;
152 -> 156 ;
157 [label="preco <= 53935.625\ngini = 0.315\nsamples = 51\nvalue = [10, 41]\nclass = sim", fillcolor="#399de5c1"] ;
143 -> 157 ;
158 [label="gini = 0.0\nsamples = 2\nvalue = [2, 0]\nclass = não", fillcolor="#e58139ff"] ;
157 -> 158 ;
159 [label="km_por_ano <= 21380.082\ngini = 0.273\nsamples = 49\nvalue = [8, 41]\nclass = sim", fillcolor="#399de5cd"] ;
157 -> 159 ;
160 [label="km_por_ano <= 18846.177\ngini = 0.165\nsamples = 33\nvalue = [3, 30]\nclass = sim", fillcolor="#399de5e6"] ;
159 -> 160 ;
161 [label="km_por_ano <= 18706.164\ngini = 0.291\nsamples = 17\nvalue = [3, 14]\nclass = sim", fillcolor="#399de5c8"] ;
160 -> 161 ;
162 [label="km_por_ano <= 17185.337\ngini = 0.219\nsamples = 16\nvalue = [2, 14]\nclass = sim", fillcolor="#399de5db"] ;
161 -> 162 ;
163 [label="gini = 0.0\nsamples = 7\nvalue = [0, 7]\nclass = sim", fillcolor="#399de5ff"] ;
162 -> 163 ;
164 [label="km_por_ano <= 17770.332\ngini = 0.346\nsamples = 9\nvalue = [2, 7]\nclass = sim", fillcolor="#399de5b6"] ;
162 -> 164 ;
165 [label="idade_do_modelo <= 7.0\ngini = 0.444\nsamples = 3\nvalue = [2, 1]\nclass = não", fillcolor="#e581397f"] ;
164 -> 165 ;
166 [label="gini = 0.0\nsamples = 1\nvalue = [0, 1]\nclass = sim", fillcolor="#399de5ff"] ;
165 -> 166 ;
167 [label="gini = 0.0\nsamples = 2\nvalue = [2, 0]\nclass = não", fillcolor="#e58139ff"] ;
165 -> 167 ;
168 [label="gini = 0.0\nsamples = 6\nvalue = [0, 6]\nclass = sim", fillcolor="#399de5ff"] ;
164 -> 168 ;
169 [label="gini = 0.0\nsamples = 1\nvalue = [1, 0]\nclass = não", fillcolor="#e58139ff"] ;
161 -> 169 ;
170 [label="gini = 0.0\nsamples = 16\nvalue = [0, 16]\nclass = sim", fillcolor="#399de5ff"] ;
160 -> 170 ;
171 [label="idade_do_modelo <= 9.0\ngini = 0.43\nsamples = 16\nvalue = [5, 11]\nclass = sim", fillcolor="#399de58b"] ;
159 -> 171 ;
172 [label="preco <= 56650.641\ngini = 0.198\nsamples = 9\nvalue = [1, 8]\nclass = sim", fillcolor="#399de5df"] ;
171 -> 172 ;
173 [label="km_por_ano <= 22864.698\ngini = 0.444\nsamples = 3\nvalue = [1, 2]\nclass = sim", fillcolor="#399de57f"] ;
172 -> 173 ;
174 [label="gini = 0.0\nsamples = 2\nvalue = [0, 2]\nclass = sim", fillcolor="#399de5ff"] ;
173 -> 174 ;
175 [label="gini = 0.0\nsamples = 1\nvalue = [1, 0]\nclass = não", fillcolor="#e58139ff"] ;
173 -> 175 ;
176 [label="gini = 0.0\nsamples = 6\nvalue = [0, 6]\nclass = sim", fillcolor="#399de5ff"] ;
172 -> 176 ;
177 [label="km_por_ano <= 22751.239\ngini = 0.49\nsamples = 7\nvalue = [4, 3]\nclass = não", fillcolor="#e5813940"] ;
171 -> 177 ;
178 [label="gini = 0.0\nsamples = 3\nvalue = [3, 0]\nclass = não", fillcolor="#e58139ff"] ;
177 -> 178 ;
179 [label="km_por_ano <= 23576.831\ngini = 0.375\nsamples = 4\nvalue = [1, 3]\nclass = sim", fillcolor="#399de5aa"] ;
177 -> 179 ;
180 [label="gini = 0.0\nsamples = 3\nvalue = [0, 3]\nclass = sim", fillcolor="#399de5ff"] ;
179 -> 180 ;
181 [label="gini = 0.0\nsamples = 1\nvalue = [1, 0]\nclass = não", fillcolor="#e58139ff"] ;
179 -> 181 ;
182 [label="km_por_ano <= 25079.954\ngini = 0.357\nsamples = 103\nvalue = [24, 79]\nclass = sim", fillcolor="#399de5b2"] ;
90 -> 182 ;
183 [label="gini = 0.0\nsamples = 3\nvalue = [3, 0]\nclass = não", fillcolor="#e58139ff"] ;
182 -> 183 ;
184 [label="preco <= 57903.77\ngini = 0.332\nsamples = 100\nvalue = [21, 79]\nclass = sim", fillcolor="#399de5bb"] ;
182 -> 184 ;
185 [label="preco <= 57360.566\ngini = 0.352\nsamples = 92\nvalue = [21, 71]\nclass = sim", fillcolor="#399de5b4"] ;
184 -> 185 ;
186 [label="km_por_ano <= 32781.451\ngini = 0.333\nsamples = 90\nvalue = [19, 71]\nclass = sim", fillcolor="#399de5bb"] ;
185 -> 186 ;
187 [label="km_por_ano <= 29868.546\ngini = 0.293\nsamples = 73\nvalue = [13, 60]\nclass = sim", fillcolor="#399de5c8"] ;
186 -> 187 ;
188 [label="km_por_ano <= 29747.845\ngini = 0.351\nsamples = 44\nvalue = [10, 34]\nclass = sim", fillcolor="#399de5b4"] ;
187 -> 188 ;
189 [label="preco <= 53899.154\ngini = 0.331\nsamples = 43\nvalue = [9, 34]\nclass = sim", fillcolor="#399de5bb"] ;
188 -> 189 ;
190 [label="preco <= 53470.879\ngini = 0.397\nsamples = 33\nvalue = [9, 24]\nclass = sim", fillcolor="#399de59f"] ;
189 -> 190 ;
191 [label="km_por_ano <= 26602.39\ngini = 0.35\nsamples = 31\nvalue = [7, 24]\nclass = sim", fillcolor="#399de5b5"] ;
190 -> 191 ;
192 [label="gini = 0.0\nsamples = 10\nvalue = [0, 10]\nclass = sim", fillcolor="#399de5ff"] ;
191 -> 192 ;
193 [label="km_por_ano <= 27114.965\ngini = 0.444\nsamples = 21\nvalue = [7, 14]\nclass = sim", fillcolor="#399de57f"] ;
191 -> 193 ;
194 [label="gini = 0.0\nsamples = 2\nvalue = [2, 0]\nclass = não", fillcolor="#e58139ff"] ;
193 -> 194 ;
195 [label="preco <= 47334.256\ngini = 0.388\nsamples = 19\nvalue = [5, 14]\nclass = sim", fillcolor="#399de5a4"] ;
193 -> 195 ;
196 [label="gini = 0.0\nsamples = 6\nvalue = [0, 6]\nclass = sim", fillcolor="#399de5ff"] ;
195 -> 196 ;
197 [label="idade_do_modelo <= 6.5\ngini = 0.473\nsamples = 13\nvalue = [5, 8]\nclass = sim", fillcolor="#399de560"] ;
195 -> 197 ;
198 [label="gini = 0.0\nsamples = 2\nvalue = [2, 0]\nclass = não", fillcolor="#e58139ff"] ;
197 -> 198 ;
199 [label="idade_do_modelo <= 10.5\ngini = 0.397\nsamples = 11\nvalue = [3, 8]\nclass = sim", fillcolor="#399de59f"] ;
197 -> 199 ;
200 [label="km_por_ano <= 28473.248\ngini = 0.49\nsamples = 7\nvalue = [3, 4]\nclass = sim", fillcolor="#399de540"] ;
199 -> 200 ;
201 [label="gini = 0.0\nsamples = 2\nvalue = [2, 0]\nclass = não", fillcolor="#e58139ff"] ;
200 -> 201 ;
202 [label="km_por_ano <= 29179.748\ngini = 0.32\nsamples = 5\nvalue = [1, 4]\nclass = sim", fillcolor="#399de5bf"] ;
200 -> 202 ;
203 [label="gini = 0.0\nsamples = 3\nvalue = [0, 3]\nclass = sim", fillcolor="#399de5ff"] ;
202 -> 203 ;
204 [label="preco <= 52097.814\ngini = 0.5\nsamples = 2\nvalue = [1, 1]\nclass = não", fillcolor="#e5813900"] ;
202 -> 204 ;
205 [label="gini = 0.0\nsamples = 1\nvalue = [1, 0]\nclass = não", fillcolor="#e58139ff"] ;
204 -> 205 ;
206 [label="gini = 0.0\nsamples = 1\nvalue = [0, 1]\nclass = sim", fillcolor="#399de5ff"] ;
204 -> 206 ;
207 [label="gini = 0.0\nsamples = 4\nvalue = [0, 4]\nclass = sim", fillcolor="#399de5ff"] ;
199 -> 207 ;
208 [label="gini = 0.0\nsamples = 2\nvalue = [2, 0]\nclass = não", fillcolor="#e58139ff"] ;
190 -> 208 ;
209 [label="gini = 0.0\nsamples = 10\nvalue = [0, 10]\nclass = sim", fillcolor="#399de5ff"] ;
189 -> 209 ;
210 [label="gini = 0.0\nsamples = 1\nvalue = [1, 0]\nclass = não", fillcolor="#e58139ff"] ;
188 -> 210 ;
211 [label="km_por_ano <= 30810.814\ngini = 0.185\nsamples = 29\nvalue = [3, 26]\nclass = sim", fillcolor="#399de5e2"] ;
187 -> 211 ;
212 [label="gini = 0.0\nsamples = 14\nvalue = [0, 14]\nclass = sim", fillcolor="#399de5ff"] ;
211 -> 212 ;
213 [label="km_por_ano <= 30997.498\ngini = 0.32\nsamples = 15\nvalue = [3, 12]\nclass = sim", fillcolor="#399de5bf"] ;
211 -> 213 ;
214 [label="gini = 0.0\nsamples = 2\nvalue = [2, 0]\nclass = não", fillcolor="#e58139ff"] ;
213 -> 214 ;
215 [label="km_por_ano <= 32298.649\ngini = 0.142\nsamples = 13\nvalue = [1, 12]\nclass = sim", fillcolor="#399de5ea"] ;
213 -> 215 ;
216 [label="gini = 0.0\nsamples = 9\nvalue = [0, 9]\nclass = sim", fillcolor="#399de5ff"] ;
215 -> 216 ;
217 [label="km_por_ano <= 32423.373\ngini = 0.375\nsamples = 4\nvalue = [1, 3]\nclass = sim", fillcolor="#399de5aa"] ;
215 -> 217 ;
218 [label="gini = 0.0\nsamples = 1\nvalue = [1, 0]\nclass = não", fillcolor="#e58139ff"] ;
217 -> 218 ;
219 [label="gini = 0.0\nsamples = 3\nvalue = [0, 3]\nclass = sim", fillcolor="#399de5ff"] ;
217 -> 219 ;
220 [label="km_por_ano <= 33053.428\ngini = 0.457\nsamples = 17\nvalue = [6, 11]\nclass = sim", fillcolor="#399de574"] ;
186 -> 220 ;
221 [label="gini = 0.0\nsamples = 2\nvalue = [2, 0]\nclass = não", fillcolor="#e58139ff"] ;
220 -> 221 ;
222 [label="preco <= 47151.512\ngini = 0.391\nsamples = 15\nvalue = [4, 11]\nclass = sim", fillcolor="#399de5a2"] ;
220 -> 222 ;
223 [label="gini = 0.0\nsamples = 5\nvalue = [0, 5]\nclass = sim", fillcolor="#399de5ff"] ;
222 -> 223 ;
224 [label="preco <= 53719.029\ngini = 0.48\nsamples = 10\nvalue = [4, 6]\nclass = sim", fillcolor="#399de555"] ;
222 -> 224 ;
225 [label="km_por_ano <= 33203.098\ngini = 0.444\nsamples = 6\nvalue = [4, 2]\nclass = não", fillcolor="#e581397f"] ;
224 -> 225 ;
226 [label="gini = 0.0\nsamples = 1\nvalue = [0, 1]\nclass = sim", fillcolor="#399de5ff"] ;
225 -> 226 ;
227 [label="km_por_ano <= 34639.436\ngini = 0.32\nsamples = 5\nvalue = [4, 1]\nclass = não", fillcolor="#e58139bf"] ;
225 -> 227 ;
228 [label="gini = 0.0\nsamples = 3\nvalue = [3, 0]\nclass = não", fillcolor="#e58139ff"] ;
227 -> 228 ;
229 [label="km_por_ano <= 34951.646\ngini = 0.5\nsamples = 2\nvalue = [1, 1]\nclass = não", fillcolor="#e5813900"] ;
227 -> 229 ;
230 [label="gini = 0.0\nsamples = 1\nvalue = [0, 1]\nclass = sim", fillcolor="#399de5ff"] ;
229 -> 230 ;
231 [label="gini = 0.0\nsamples = 1\nvalue = [1, 0]\nclass = não", fillcolor="#e58139ff"] ;
229 -> 231 ;
232 [label="gini = 0.0\nsamples = 4\nvalue = [0, 4]\nclass = sim", fillcolor="#399de5ff"] ;
224 -> 232 ;
233 [label="gini = 0.0\nsamples = 2\nvalue = [2, 0]\nclass = não", fillcolor="#e58139ff"] ;
185 -> 233 ;
234 [label="gini = 0.0\nsamples = 8\nvalue = [0, 8]\nclass = sim", fillcolor="#399de5ff"] ;
184 -> 234 ;
235 [label="km_por_ano <= 33759.93\ngini = 0.351\nsamples = 652\nvalue = [148, 504]\nclass = sim", fillcolor="#399de5b4"] ;
51 -> 235 ;
236 [label="km_por_ano <= 33648.082\ngini = 0.357\nsamples = 628\nvalue = [146, 482]\nclass = sim", fillcolor="#399de5b2"] ;
235 -> 236 ;
237 [label="preco <= 59716.682\ngini = 0.356\nsamples = 627\nvalue = [145, 482]\nclass = sim", fillcolor="#399de5b2"] ;
236 -> 237 ;
238 [label="preco <= 59587.615\ngini = 0.359\nsamples = 619\nvalue = [145, 474]\nclass = sim", fillcolor="#399de5b1"] ;
237 -> 238 ;
239 [label="preco <= 55279.695\ngini = 0.356\nsamples = 617\nvalue = [143, 474]\nclass = sim", fillcolor="#399de5b2"] ;
238 -> 239 ;
240 [label="km_por_ano <= 12482.041\ngini = 0.341\nsamples = 464\nvalue = [101, 363]\nclass = sim", fillcolor="#399de5b8"] ;
239 -> 240 ;
241 [label="km_por_ano <= 12345.247\ngini = 0.452\nsamples = 29\nvalue = [10, 19]\nclass = sim", fillcolor="#399de579"] ;
240 -> 241 ;
242 [label="idade_do_modelo <= 16.5\ngini = 0.417\nsamples = 27\nvalue = [8, 19]\nclass = sim", fillcolor="#399de594"] ;
241 -> 242 ;
243 [label="preco <= 54827.18\ngini = 0.34\nsamples = 23\nvalue = [5, 18]\nclass = sim", fillcolor="#399de5b8"] ;
242 -> 243 ;
244 [label="preco <= 46656.4\ngini = 0.298\nsamples = 22\nvalue = [4, 18]\nclass = sim", fillcolor="#399de5c6"] ;
243 -> 244 ;
245 [label="km_por_ano <= 11260.552\ngini = 0.48\nsamples = 10\nvalue = [4, 6]\nclass = sim", fillcolor="#399de555"] ;
244 -> 245 ;
246 [label="preco <= 44012.504\ngini = 0.444\nsamples = 6\nvalue = [4, 2]\nclass = não", fillcolor="#e581397f"] ;
245 -> 246 ;
247 [label="km_por_ano <= 10680.385\ngini = 0.444\nsamples = 3\nvalue = [1, 2]\nclass = sim", fillcolor="#399de57f"] ;
246 -> 247 ;
248 [label="gini = 0.0\nsamples = 2\nvalue = [0, 2]\nclass = sim", fillcolor="#399de5ff"] ;
247 -> 248 ;
249 [label="gini = 0.0\nsamples = 1\nvalue = [1, 0]\nclass = não", fillcolor="#e58139ff"] ;
247 -> 249 ;
250 [label="gini = 0.0\nsamples = 3\nvalue = [3, 0]\nclass = não", fillcolor="#e58139ff"] ;
246 -> 250 ;
251 [label="gini = 0.0\nsamples = 4\nvalue = [0, 4]\nclass = sim", fillcolor="#399de5ff"] ;
245 -> 251 ;
252 [label="gini = 0.0\nsamples = 12\nvalue = [0, 12]\nclass = sim", fillcolor="#399de5ff"] ;
244 -> 252 ;
253 [label="gini = 0.0\nsamples = 1\nvalue = [1, 0]\nclass = não", fillcolor="#e58139ff"] ;
243 -> 253 ;
254 [label="km_por_ano <= 10505.771\ngini = 0.375\nsamples = 4\nvalue = [3, 1]\nclass = não", fillcolor="#e58139aa"] ;
242 -> 254 ;
255 [label="gini = 0.0\nsamples = 1\nvalue = [0, 1]\nclass = sim", fillcolor="#399de5ff"] ;
254 -> 255 ;
256 [label="gini = 0.0\nsamples = 3\nvalue = [3, 0]\nclass = não", fillcolor="#e58139ff"] ;
254 -> 256 ;
257 [label="gini = 0.0\nsamples = 2\nvalue = [2, 0]\nclass = não", fillcolor="#e58139ff"] ;
241 -> 257 ;
258 [label="km_por_ano <= 14284.502\ngini = 0.331\nsamples = 435\nvalue = [91, 344]\nclass = sim", fillcolor="#399de5bc"] ;
240 -> 258 ;
259 [label="idade_do_modelo <= 14.5\ngini = 0.165\nsamples = 33\nvalue = [3, 30]\nclass = sim", fillcolor="#399de5e6"] ;
258 -> 259 ;
260 [label="preco <= 49910.32\ngini = 0.32\nsamples = 10\nvalue = [2, 8]\nclass = sim", fillcolor="#399de5bf"] ;
259 -> 260 ;
261 [label="km_por_ano <= 13600.532\ngini = 0.444\nsamples = 6\nvalue = [2, 4]\nclass = sim", fillcolor="#399de57f"] ;
260 -> 261 ;
262 [label="preco <= 49120.455\ngini = 0.32\nsamples = 5\nvalue = [1, 4]\nclass = sim", fillcolor="#399de5bf"] ;
261 -> 262 ;
263 [label="gini = 0.0\nsamples = 4\nvalue = [0, 4]\nclass = sim", fillcolor="#399de5ff"] ;
262 -> 263 ;
264 [label="gini = 0.0\nsamples = 1\nvalue = [1, 0]\nclass = não", fillcolor="#e58139ff"] ;
262 -> 264 ;
265 [label="gini = 0.0\nsamples = 1\nvalue = [1, 0]\nclass = não", fillcolor="#e58139ff"] ;
261 -> 265 ;
266 [label="gini = 0.0\nsamples = 4\nvalue = [0, 4]\nclass = sim", fillcolor="#399de5ff"] ;
260 -> 266 ;
267 [label="preco <= 53662.16\ngini = 0.083\nsamples = 23\nvalue = [1, 22]\nclass = sim", fillcolor="#399de5f3"] ;
259 -> 267 ;
268 [label="gini = 0.0\nsamples = 19\nvalue = [0, 19]\nclass = sim", fillcolor="#399de5ff"] ;
267 -> 268 ;
269 [label="preco <= 54174.334\ngini = 0.375\nsamples = 4\nvalue = [1, 3]\nclass = sim", fillcolor="#399de5aa"] ;
267 -> 269 ;
270 [label="gini = 0.0\nsamples = 1\nvalue = [1, 0]\nclass = não", fillcolor="#e58139ff"] ;
269 -> 270 ;
271 [label="gini = 0.0\nsamples = 3\nvalue = [0, 3]\nclass = sim", fillcolor="#399de5ff"] ;
269 -> 271 ;
272 [label="km_por_ano <= 14680.399\ngini = 0.342\nsamples = 402\nvalue = [88, 314]\nclass = sim", fillcolor="#399de5b8"] ;
258 -> 272 ;
273 [label="preco <= 51089.096\ngini = 0.49\nsamples = 7\nvalue = [4, 3]\nclass = não", fillcolor="#e5813940"] ;
272 -> 273 ;
274 [label="km_por_ano <= 14327.954\ngini = 0.375\nsamples = 4\nvalue = [1, 3]\nclass = sim", fillcolor="#399de5aa"] ;
273 -> 274 ;
275 [label="gini = 0.0\nsamples = 1\nvalue = [1, 0]\nclass = não", fillcolor="#e58139ff"] ;
274 -> 275 ;
276 [label="gini = 0.0\nsamples = 3\nvalue = [0, 3]\nclass = sim", fillcolor="#399de5ff"] ;
274 -> 276 ;
277 [label="gini = 0.0\nsamples = 3\nvalue = [3, 0]\nclass = não", fillcolor="#e58139ff"] ;
273 -> 277 ;
278 [label="preco <= 53192.064\ngini = 0.335\nsamples = 395\nvalue = [84, 311]\nclass = sim", fillcolor="#399de5ba"] ;
272 -> 278 ;
279 [label="km_por_ano <= 31560.768\ngini = 0.353\nsamples = 341\nvalue = [78, 263]\nclass = sim", fillcolor="#399de5b3"] ;
278 -> 279 ;
280 [label="km_por_ano <= 20001.682\ngini = 0.341\nsamples = 321\nvalue = [70, 251]\nclass = sim", fillcolor="#399de5b8"] ;
279 -> 280 ;
281 [label="preco <= 44492.125\ngini = 0.4\nsamples = 116\nvalue = [32, 84]\nclass = sim", fillcolor="#399de59e"] ;
280 -> 281 ;
282 [label="preco <= 44290.43\ngini = 0.489\nsamples = 40\nvalue = [17, 23]\nclass = sim", fillcolor="#399de543"] ;
281 -> 282 ;
283 [label="idade_do_modelo <= 14.5\ngini = 0.47\nsamples = 37\nvalue = [14, 23]\nclass = sim", fillcolor="#399de564"] ;
282 -> 283 ;
284 [label="km_por_ano <= 14942.722\ngini = 0.36\nsamples = 17\nvalue = [4, 13]\nclass = sim", fillcolor="#399de5b1"] ;
283 -> 284 ;
285 [label="gini = 0.0\nsamples = 1\nvalue = [1, 0]\nclass = não", fillcolor="#e58139ff"] ;
284 -> 285 ;
286 [label="km_por_ano <= 17401.794\ngini = 0.305\nsamples = 16\nvalue = [3, 13]\nclass = sim", fillcolor="#399de5c4"] ;
284 -> 286 ;
287 [label="km_por_ano <= 17059.809\ngini = 0.42\nsamples = 10\nvalue = [3, 7]\nclass = sim", fillcolor="#399de592"] ;
286 -> 287 ;
288 [label="idade_do_modelo <= 13.5\ngini = 0.219\nsamples = 8\nvalue = [1, 7]\nclass = sim", fillcolor="#399de5db"] ;
287 -> 288 ;
289 [label="gini = 0.0\nsamples = 6\nvalue = [0, 6]\nclass = sim", fillcolor="#399de5ff"] ;
288 -> 289 ;
290 [label="km_por_ano <= 15996.035\ngini = 0.5\nsamples = 2\nvalue = [1, 1]\nclass = não", fillcolor="#e5813900"] ;
288 -> 290 ;
291 [label="gini = 0.0\nsamples = 1\nvalue = [0, 1]\nclass = sim", fillcolor="#399de5ff"] ;
290 -> 291 ;
292 [label="gini = 0.0\nsamples = 1\nvalue = [1, 0]\nclass = não", fillcolor="#e58139ff"] ;
290 -> 292 ;
293 [label="gini = 0.0\nsamples = 2\nvalue = [2, 0]\nclass = não", fillcolor="#e58139ff"] ;
287 -> 293 ;
294 [label="gini = 0.0\nsamples = 6\nvalue = [0, 6]\nclass = sim", fillcolor="#399de5ff"] ;
286 -> 294 ;
295 [label="km_por_ano <= 16103.056\ngini = 0.5\nsamples = 20\nvalue = [10, 10]\nclass = não", fillcolor="#e5813900"] ;
283 -> 295 ;
296 [label="gini = 0.0\nsamples = 3\nvalue = [3, 0]\nclass = não", fillcolor="#e58139ff"] ;
295 -> 296 ;
297 [label="km_por_ano <= 16896.461\ngini = 0.484\nsamples = 17\nvalue = [7, 10]\nclass = sim", fillcolor="#399de54d"] ;
295 -> 297 ;
298 [label="gini = 0.0\nsamples = 3\nvalue = [0, 3]\nclass = sim", fillcolor="#399de5ff"] ;
297 -> 298 ;
299 [label="km_por_ano <= 19679.814\ngini = 0.5\nsamples = 14\nvalue = [7, 7]\nclass = não", fillcolor="#e5813900"] ;
297 -> 299 ;
300 [label="km_por_ano <= 18447.864\ngini = 0.48\nsamples = 10\nvalue = [6, 4]\nclass = não", fillcolor="#e5813955"] ;
299 -> 300 ;
301 [label="preco <= 41854.98\ngini = 0.49\nsamples = 7\nvalue = [3, 4]\nclass = sim", fillcolor="#399de540"] ;
300 -> 301 ;
302 [label="gini = 0.0\nsamples = 2\nvalue = [0, 2]\nclass = sim", fillcolor="#399de5ff"] ;
301 -> 302 ;
303 [label="preco <= 43373.061\ngini = 0.48\nsamples = 5\nvalue = [3, 2]\nclass = não", fillcolor="#e5813955"] ;
301 -> 303 ;
304 [label="gini = 0.0\nsamples = 2\nvalue = [2, 0]\nclass = não", fillcolor="#e58139ff"] ;
303 -> 304 ;
305 [label="idade_do_modelo <= 15.5\ngini = 0.444\nsamples = 3\nvalue = [1, 2]\nclass = sim", fillcolor="#399de57f"] ;
303 -> 305 ;
306 [label="gini = 0.0\nsamples = 1\nvalue = [1, 0]\nclass = não", fillcolor="#e58139ff"] ;
305 -> 306 ;
307 [label="gini = 0.0\nsamples = 2\nvalue = [0, 2]\nclass = sim", fillcolor="#399de5ff"] ;
305 -> 307 ;
308 [label="gini = 0.0\nsamples = 3\nvalue = [3, 0]\nclass = não", fillcolor="#e58139ff"] ;
300 -> 308 ;
309 [label="km_por_ano <= 19973.519\ngini = 0.375\nsamples = 4\nvalue = [1, 3]\nclass = sim", fillcolor="#399de5aa"] ;
299 -> 309 ;
310 [label="gini = 0.0\nsamples = 3\nvalue = [0, 3]\nclass = sim", fillcolor="#399de5ff"] ;
309 -> 310 ;
311 [label="gini = 0.0\nsamples = 1\nvalue = [1, 0]\nclass = não", fillcolor="#e58139ff"] ;
309 -> 311 ;
312 [label="gini = 0.0\nsamples = 3\nvalue = [3, 0]\nclass = não", fillcolor="#e58139ff"] ;
282 -> 312 ;
313 [label="km_por_ano <= 19757.866\ngini = 0.317\nsamples = 76\nvalue = [15, 61]\nclass = sim", fillcolor="#399de5c0"] ;
281 -> 313 ;
314 [label="km_por_ano <= 15994.426\ngini = 0.262\nsamples = 71\nvalue = [11, 60]\nclass = sim", fillcolor="#399de5d0"] ;
313 -> 314 ;
315 [label="idade_do_modelo <= 14.5\ngini = 0.08\nsamples = 24\nvalue = [1, 23]\nclass = sim", fillcolor="#399de5f4"] ;
314 -> 315 ;
316 [label="gini = 0.0\nsamples = 13\nvalue = [0, 13]\nclass = sim", fillcolor="#399de5ff"] ;
315 -> 316 ;
317 [label="km_por_ano <= 15501.163\ngini = 0.165\nsamples = 11\nvalue = [1, 10]\nclass = sim", fillcolor="#399de5e6"] ;
315 -> 317 ;
318 [label="km_por_ano <= 15459.32\ngini = 0.32\nsamples = 5\nvalue = [1, 4]\nclass = sim", fillcolor="#399de5bf"] ;
317 -> 318 ;
319 [label="gini = 0.0\nsamples = 4\nvalue = [0, 4]\nclass = sim", fillcolor="#399de5ff"] ;
318 -> 319 ;
320 [label="gini = 0.0\nsamples = 1\nvalue = [1, 0]\nclass = não", fillcolor="#e58139ff"] ;
318 -> 320 ;
321 [label="gini = 0.0\nsamples = 6\nvalue = [0, 6]\nclass = sim", fillcolor="#399de5ff"] ;
317 -> 321 ;
322 [label="km_por_ano <= 16063.627\ngini = 0.335\nsamples = 47\nvalue = [10, 37]\nclass = sim", fillcolor="#399de5ba"] ;
314 -> 322 ;
323 [label="gini = 0.0\nsamples = 2\nvalue = [2, 0]\nclass = não", fillcolor="#e58139ff"] ;
322 -> 323 ;
324 [label="idade_do_modelo <= 14.5\ngini = 0.292\nsamples = 45\nvalue = [8, 37]\nclass = sim", fillcolor="#399de5c8"] ;
322 -> 324 ;
325 [label="preco <= 52242.189\ngini = 0.444\nsamples = 18\nvalue = [6, 12]\nclass = sim", fillcolor="#399de57f"] ;
324 -> 325 ;
326 [label="km_por_ano <= 19158.388\ngini = 0.497\nsamples = 13\nvalue = [6, 7]\nclass = sim", fillcolor="#399de524"] ;
325 -> 326 ;
327 [label="km_por_ano <= 17337.42\ngini = 0.469\nsamples = 8\nvalue = [5, 3]\nclass = não", fillcolor="#e5813966"] ;
326 -> 327 ;
328 [label="gini = 0.0\nsamples = 2\nvalue = [0, 2]\nclass = sim", fillcolor="#399de5ff"] ;
327 -> 328 ;
329 [label="km_por_ano <= 18227.385\ngini = 0.278\nsamples = 6\nvalue = [5, 1]\nclass = não", fillcolor="#e58139cc"] ;
327 -> 329 ;
330 [label="km_por_ano <= 17923.22\ngini = 0.444\nsamples = 3\nvalue = [2, 1]\nclass = não", fillcolor="#e581397f"] ;
329 -> 330 ;
331 [label="gini = 0.0\nsamples = 2\nvalue = [2, 0]\nclass = não", fillcolor="#e58139ff"] ;
330 -> 331 ;
332 [label="gini = 0.0\nsamples = 1\nvalue = [0, 1]\nclass = sim", fillcolor="#399de5ff"] ;
330 -> 332 ;
333 [label="gini = 0.0\nsamples = 3\nvalue = [3, 0]\nclass = não", fillcolor="#e58139ff"] ;
329 -> 333 ;
334 [label="km_por_ano <= 19350.704\ngini = 0.32\nsamples = 5\nvalue = [1, 4]\nclass = sim", fillcolor="#399de5bf"] ;
326 -> 334 ;
335 [label="gini = 0.0\nsamples = 3\nvalue = [0, 3]\nclass = sim", fillcolor="#399de5ff"] ;
334 -> 335 ;
336 [label="km_por_ano <= 19567.966\ngini = 0.5\nsamples = 2\nvalue = [1, 1]\nclass = não", fillcolor="#e5813900"] ;
334 -> 336 ;
337 [label="gini = 0.0\nsamples = 1\nvalue = [1, 0]\nclass = não", fillcolor="#e58139ff"] ;
336 -> 337 ;
338 [label="gini = 0.0\nsamples = 1\nvalue = [0, 1]\nclass = sim", fillcolor="#399de5ff"] ;
336 -> 338 ;
339 [label="gini = 0.0\nsamples = 5\nvalue = [0, 5]\nclass = sim", fillcolor="#399de5ff"] ;
325 -> 339 ;
340 [label="km_por_ano <= 17073.488\ngini = 0.137\nsamples = 27\nvalue = [2, 25]\nclass = sim", fillcolor="#399de5eb"] ;
324 -> 340 ;
341 [label="preco <= 49215.326\ngini = 0.444\nsamples = 3\nvalue = [1, 2]\nclass = sim", fillcolor="#399de57f"] ;
340 -> 341 ;
342 [label="gini = 0.0\nsamples = 2\nvalue = [0, 2]\nclass = sim", fillcolor="#399de5ff"] ;
341 -> 342 ;
343 [label="gini = 0.0\nsamples = 1\nvalue = [1, 0]\nclass = não", fillcolor="#e58139ff"] ;
341 -> 343 ;
344 [label="preco <= 51836.301\ngini = 0.08\nsamples = 24\nvalue = [1, 23]\nclass = sim", fillcolor="#399de5f4"] ;
340 -> 344 ;
345 [label="gini = 0.0\nsamples = 21\nvalue = [0, 21]\nclass = sim", fillcolor="#399de5ff"] ;
344 -> 345 ;
346 [label="km_por_ano <= 18661.907\ngini = 0.444\nsamples = 3\nvalue = [1, 2]\nclass = sim", fillcolor="#399de57f"] ;
344 -> 346 ;
347 [label="gini = 0.0\nsamples = 1\nvalue = [1, 0]\nclass = não", fillcolor="#e58139ff"] ;
346 -> 347 ;
348 [label="gini = 0.0\nsamples = 2\nvalue = [0, 2]\nclass = sim", fillcolor="#399de5ff"] ;
346 -> 348 ;
349 [label="idade_do_modelo <= 13.5\ngini = 0.32\nsamples = 5\nvalue = [4, 1]\nclass = não", fillcolor="#e58139bf"] ;
313 -> 349 ;
350 [label="gini = 0.0\nsamples = 2\nvalue = [2, 0]\nclass = não", fillcolor="#e58139ff"] ;
349 -> 350 ;
351 [label="km_por_ano <= 19844.771\ngini = 0.444\nsamples = 3\nvalue = [2, 1]\nclass = não", fillcolor="#e581397f"] ;
349 -> 351 ;
352 [label="gini = 0.0\nsamples = 2\nvalue = [2, 0]\nclass = não", fillcolor="#e58139ff"] ;
351 -> 352 ;
353 [label="gini = 0.0\nsamples = 1\nvalue = [0, 1]\nclass = sim", fillcolor="#399de5ff"] ;
351 -> 353 ;
354 [label="km_por_ano <= 20765.314\ngini = 0.302\nsamples = 205\nvalue = [38, 167]\nclass = sim", fillcolor="#399de5c5"] ;
280 -> 354 ;
355 [label="gini = 0.0\nsamples = 18\nvalue = [0, 18]\nclass = sim", fillcolor="#399de5ff"] ;
354 -> 355 ;
356 [label="km_por_ano <= 21638.381\ngini = 0.324\nsamples = 187\nvalue = [38, 149]\nclass = sim", fillcolor="#399de5be"] ;
354 -> 356 ;
357 [label="km_por_ano <= 21600.562\ngini = 0.469\nsamples = 24\nvalue = [9, 15]\nclass = sim", fillcolor="#399de566"] ;
356 -> 357 ;
358 [label="preco <= 42317.0\ngini = 0.408\nsamples = 21\nvalue = [6, 15]\nclass = sim", fillcolor="#399de599"] ;
357 -> 358 ;
359 [label="gini = 0.0\nsamples = 1\nvalue = [1, 0]\nclass = não", fillcolor="#e58139ff"] ;
358 -> 359 ;
360 [label="preco <= 47672.74\ngini = 0.375\nsamples = 20\nvalue = [5, 15]\nclass = sim", fillcolor="#399de5aa"] ;
358 -> 360 ;
361 [label="gini = 0.0\nsamples = 8\nvalue = [0, 8]\nclass = sim", fillcolor="#399de5ff"] ;
360 -> 361 ;
362 [label="preco <= 48636.291\ngini = 0.486\nsamples = 12\nvalue = [5, 7]\nclass = sim", fillcolor="#399de549"] ;
360 -> 362 ;
363 [label="gini = 0.0\nsamples = 2\nvalue = [2, 0]\nclass = não", fillcolor="#e58139ff"] ;
362 -> 363 ;
364 [label="preco <= 52652.641\ngini = 0.42\nsamples = 10\nvalue = [3, 7]\nclass = sim", fillcolor="#399de592"] ;
362 -> 364 ;
365 [label="preco <= 48927.006\ngini = 0.245\nsamples = 7\nvalue = [1, 6]\nclass = sim", fillcolor="#399de5d4"] ;
364 -> 365 ;
366 [label="idade_do_modelo <= 15.5\ngini = 0.5\nsamples = 2\nvalue = [1, 1]\nclass = não", fillcolor="#e5813900"] ;
365 -> 366 ;
367 [label="gini = 0.0\nsamples = 1\nvalue = [1, 0]\nclass = não", fillcolor="#e58139ff"] ;
366 -> 367 ;
368 [label="gini = 0.0\nsamples = 1\nvalue = [0, 1]\nclass = sim", fillcolor="#399de5ff"] ;
366 -> 368 ;
369 [label="gini = 0.0\nsamples = 5\nvalue = [0, 5]\nclass = sim", fillcolor="#399de5ff"] ;
365 -> 369 ;
370 [label="km_por_ano <= 21515.267\ngini = 0.444\nsamples = 3\nvalue = [2, 1]\nclass = não", fillcolor="#e581397f"] ;
364 -> 370 ;
371 [label="gini = 0.0\nsamples = 2\nvalue = [2, 0]\nclass = não", fillcolor="#e58139ff"] ;
370 -> 371 ;
372 [label="gini = 0.0\nsamples = 1\nvalue = [0, 1]\nclass = sim", fillcolor="#399de5ff"] ;
370 -> 372 ;
373 [label="gini = 0.0\nsamples = 3\nvalue = [3, 0]\nclass = não", fillcolor="#e58139ff"] ;
357 -> 373 ;
374 [label="km_por_ano <= 24229.419\ngini = 0.293\nsamples = 163\nvalue = [29, 134]\nclass = sim", fillcolor="#399de5c8"] ;
356 -> 374 ;
375 [label="preco <= 47284.07\ngini = 0.122\nsamples = 46\nvalue = [3, 43]\nclass = sim", fillcolor="#399de5ed"] ;
374 -> 375 ;
376 [label="preco <= 46131.141\ngini = 0.191\nsamples = 28\nvalue = [3, 25]\nclass = sim", fillcolor="#399de5e0"] ;
375 -> 376 ;
377 [label="idade_do_modelo <= 13.5\ngini = 0.077\nsamples = 25\nvalue = [1, 24]\nclass = sim", fillcolor="#399de5f4"] ;
376 -> 377 ;
378 [label="km_por_ano <= 23366.008\ngini = 0.278\nsamples = 6\nvalue = [1, 5]\nclass = sim", fillcolor="#399de5cc"] ;
377 -> 378 ;
379 [label="gini = 0.0\nsamples = 5\nvalue = [0, 5]\nclass = sim", fillcolor="#399de5ff"] ;
378 -> 379 ;
380 [label="gini = 0.0\nsamples = 1\nvalue = [1, 0]\nclass = não", fillcolor="#e58139ff"] ;
378 -> 380 ;
381 [label="gini = 0.0\nsamples = 19\nvalue = [0, 19]\nclass = sim", fillcolor="#399de5ff"] ;
377 -> 381 ;
382 [label="preco <= 46415.73\ngini = 0.444\nsamples = 3\nvalue = [2, 1]\nclass = não", fillcolor="#e581397f"] ;
376 -> 382 ;
383 [label="gini = 0.0\nsamples = 1\nvalue = [1, 0]\nclass = não", fillcolor="#e58139ff"] ;
382 -> 383 ;
384 [label="preco <= 46762.445\ngini = 0.5\nsamples = 2\nvalue = [1, 1]\nclass = não", fillcolor="#e5813900"] ;
382 -> 384 ;
385 [label="gini = 0.0\nsamples = 1\nvalue = [0, 1]\nclass = sim", fillcolor="#399de5ff"] ;
384 -> 385 ;
386 [label="gini = 0.0\nsamples = 1\nvalue = [1, 0]\nclass = não", fillcolor="#e58139ff"] ;
384 -> 386 ;
387 [label="gini = 0.0\nsamples = 18\nvalue = [0, 18]\nclass = sim", fillcolor="#399de5ff"] ;
375 -> 387 ;
388 [label="km_por_ano <= 27020.818\ngini = 0.346\nsamples = 117\nvalue = [26, 91]\nclass = sim", fillcolor="#399de5b6"] ;
374 -> 388 ;
389 [label="idade_do_modelo <= 15.5\ngini = 0.449\nsamples = 44\nvalue = [15, 29]\nclass = sim", fillcolor="#399de57b"] ;
388 -> 389 ;
390 [label="preco <= 42300.699\ngini = 0.382\nsamples = 35\nvalue = [9, 26]\nclass = sim", fillcolor="#399de5a7"] ;
389 -> 390 ;
391 [label="gini = 0.0\nsamples = 2\nvalue = [2, 0]\nclass = não", fillcolor="#e58139ff"] ;
390 -> 391 ;
392 [label="km_por_ano <= 25803.354\ngini = 0.334\nsamples = 33\nvalue = [7, 26]\nclass = sim", fillcolor="#399de5ba"] ;
390 -> 392 ;
393 [label="km_por_ano <= 24288.964\ngini = 0.165\nsamples = 22\nvalue = [2, 20]\nclass = sim", fillcolor="#399de5e6"] ;
392 -> 393 ;
394 [label="preco <= 49738.389\ngini = 0.5\nsamples = 2\nvalue = [1, 1]\nclass = não", fillcolor="#e5813900"] ;
393 -> 394 ;
395 [label="gini = 0.0\nsamples = 1\nvalue = [0, 1]\nclass = sim", fillcolor="#399de5ff"] ;
394 -> 395 ;
396 [label="gini = 0.0\nsamples = 1\nvalue = [1, 0]\nclass = não", fillcolor="#e58139ff"] ;
394 -> 396 ;
397 [label="idade_do_modelo <= 12.5\ngini = 0.095\nsamples = 20\nvalue = [1, 19]\nclass = sim", fillcolor="#399de5f2"] ;
393 -> 397 ;
398 [label="preco <= 48360.115\ngini = 0.375\nsamples = 4\nvalue = [1, 3]\nclass = sim", fillcolor="#399de5aa"] ;
397 -> 398 ;
399 [label="km_por_ano <= 25099.267\ngini = 0.5\nsamples = 2\nvalue = [1, 1]\nclass = não", fillcolor="#e5813900"] ;
398 -> 399 ;
400 [label="gini = 0.0\nsamples = 1\nvalue = [0, 1]\nclass = sim", fillcolor="#399de5ff"] ;
399 -> 400 ;
401 [label="gini = 0.0\nsamples = 1\nvalue = [1, 0]\nclass = não", fillcolor="#e58139ff"] ;
399 -> 401 ;
402 [label="gini = 0.0\nsamples = 2\nvalue = [0, 2]\nclass = sim", fillcolor="#399de5ff"] ;
398 -> 402 ;
403 [label="gini = 0.0\nsamples = 16\nvalue = [0, 16]\nclass = sim", fillcolor="#399de5ff"] ;
397 -> 403 ;
404 [label="km_por_ano <= 26020.614\ngini = 0.496\nsamples = 11\nvalue = [5, 6]\nclass = sim", fillcolor="#399de52a"] ;
392 -> 404 ;
405 [label="gini = 0.0\nsamples = 2\nvalue = [2, 0]\nclass = não", fillcolor="#e58139ff"] ;
404 -> 405 ;
406 [label="preco <= 47080.42\ngini = 0.444\nsamples = 9\nvalue = [3, 6]\nclass = sim", fillcolor="#399de57f"] ;
404 -> 406 ;
407 [label="gini = 0.0\nsamples = 4\nvalue = [0, 4]\nclass = sim", fillcolor="#399de5ff"] ;
406 -> 407 ;
408 [label="idade_do_modelo <= 13.5\ngini = 0.48\nsamples = 5\nvalue = [3, 2]\nclass = não", fillcolor="#e5813955"] ;
406 -> 408 ;
409 [label="gini = 0.0\nsamples = 2\nvalue = [2, 0]\nclass = não", fillcolor="#e58139ff"] ;
408 -> 409 ;
410 [label="km_por_ano <= 26721.481\ngini = 0.444\nsamples = 3\nvalue = [1, 2]\nclass = sim", fillcolor="#399de57f"] ;
408 -> 410 ;
411 [label="gini = 0.0\nsamples = 2\nvalue = [0, 2]\nclass = sim", fillcolor="#399de5ff"] ;
410 -> 411 ;
412 [label="gini = 0.0\nsamples = 1\nvalue = [1, 0]\nclass = não", fillcolor="#e58139ff"] ;
410 -> 412 ;
413 [label="preco <= 43240.484\ngini = 0.444\nsamples = 9\nvalue = [6, 3]\nclass = não", fillcolor="#e581397f"] ;
389 -> 413 ;
414 [label="gini = 0.0\nsamples = 2\nvalue = [0, 2]\nclass = sim", fillcolor="#399de5ff"] ;
413 -> 414 ;
415 [label="idade_do_modelo <= 16.5\ngini = 0.245\nsamples = 7\nvalue = [6, 1]\nclass = não", fillcolor="#e58139d4"] ;
413 -> 415 ;
416 [label="km_por_ano <= 24805.562\ngini = 0.444\nsamples = 3\nvalue = [2, 1]\nclass = não", fillcolor="#e581397f"] ;
415 -> 416 ;
417 [label="gini = 0.0\nsamples = 2\nvalue = [2, 0]\nclass = não", fillcolor="#e58139ff"] ;
416 -> 417 ;
418 [label="gini = 0.0\nsamples = 1\nvalue = [0, 1]\nclass = sim", fillcolor="#399de5ff"] ;
416 -> 418 ;
419 [label="gini = 0.0\nsamples = 4\nvalue = [4, 0]\nclass = não", fillcolor="#e58139ff"] ;
415 -> 419 ;
420 [label="preco <= 49023.51\ngini = 0.256\nsamples = 73\nvalue = [11, 62]\nclass = sim", fillcolor="#399de5d2"] ;
388 -> 420 ;
421 [label="km_por_ano <= 29606.224\ngini = 0.097\nsamples = 39\nvalue = [2, 37]\nclass = sim", fillcolor="#399de5f1"] ;
420 -> 421 ;
422 [label="km_por_ano <= 29545.873\ngini = 0.172\nsamples = 21\nvalue = [2, 19]\nclass = sim", fillcolor="#399de5e4"] ;
421 -> 422 ;
423 [label="preco <= 43442.238\ngini = 0.095\nsamples = 20\nvalue = [1, 19]\nclass = sim", fillcolor="#399de5f2"] ;
422 -> 423 ;
424 [label="preco <= 43034.35\ngini = 0.32\nsamples = 5\nvalue = [1, 4]\nclass = sim", fillcolor="#399de5bf"] ;
423 -> 424 ;
425 [label="gini = 0.0\nsamples = 4\nvalue = [0, 4]\nclass = sim", fillcolor="#399de5ff"] ;
424 -> 425 ;
426 [label="gini = 0.0\nsamples = 1\nvalue = [1, 0]\nclass = não", fillcolor="#e58139ff"] ;
424 -> 426 ;
427 [label="gini = 0.0\nsamples = 15\nvalue = [0, 15]\nclass = sim", fillcolor="#399de5ff"] ;
423 -> 427 ;
428 [label="gini = 0.0\nsamples = 1\nvalue = [1, 0]\nclass = não", fillcolor="#e58139ff"] ;
422 -> 428 ;
429 [label="gini = 0.0\nsamples = 18\nvalue = [0, 18]\nclass = sim", fillcolor="#399de5ff"] ;
421 -> 429 ;
430 [label="preco <= 51940.164\ngini = 0.389\nsamples = 34\nvalue = [9, 25]\nclass = sim", fillcolor="#399de5a3"] ;
420 -> 430 ;
431 [label="preco <= 51611.354\ngini = 0.463\nsamples = 22\nvalue = [8, 14]\nclass = sim", fillcolor="#399de56d"] ;
430 -> 431 ;
432 [label="km_por_ano <= 28269.667\ngini = 0.42\nsamples = 20\nvalue = [6, 14]\nclass = sim", fillcolor="#399de592"] ;
431 -> 432 ;
433 [label="gini = 0.0\nsamples = 5\nvalue = [0, 5]\nclass = sim", fillcolor="#399de5ff"] ;
432 -> 433 ;
434 [label="preco <= 49235.256\ngini = 0.48\nsamples = 15\nvalue = [6, 9]\nclass = sim", fillcolor="#399de555"] ;
432 -> 434 ;
435 [label="gini = 0.0\nsamples = 2\nvalue = [2, 0]\nclass = não", fillcolor="#e58139ff"] ;
434 -> 435 ;
436 [label="preco <= 50000.404\ngini = 0.426\nsamples = 13\nvalue = [4, 9]\nclass = sim", fillcolor="#399de58e"] ;
434 -> 436 ;
437 [label="gini = 0.0\nsamples = 4\nvalue = [0, 4]\nclass = sim", fillcolor="#399de5ff"] ;
436 -> 437 ;
438 [label="km_por_ano <= 31234.875\ngini = 0.494\nsamples = 9\nvalue = [4, 5]\nclass = sim", fillcolor="#399de533"] ;
436 -> 438 ;
439 [label="idade_do_modelo <= 12.5\ngini = 0.49\nsamples = 7\nvalue = [4, 3]\nclass = não", fillcolor="#e5813940"] ;
438 -> 439 ;
440 [label="gini = 0.0\nsamples = 1\nvalue = [0, 1]\nclass = sim", fillcolor="#399de5ff"] ;
439 -> 440 ;
441 [label="preco <= 50328.795\ngini = 0.444\nsamples = 6\nvalue = [4, 2]\nclass = não", fillcolor="#e581397f"] ;
439 -> 441 ;
442 [label="gini = 0.0\nsamples = 2\nvalue = [2, 0]\nclass = não", fillcolor="#e58139ff"] ;
441 -> 442 ;
443 [label="km_por_ano <= 29663.354\ngini = 0.5\nsamples = 4\nvalue = [2, 2]\nclass = não", fillcolor="#e5813900"] ;
441 -> 443 ;
444 [label="gini = 0.0\nsamples = 1\nvalue = [1, 0]\nclass = não", fillcolor="#e58139ff"] ;
443 -> 444 ;
445 [label="km_por_ano <= 30917.03\ngini = 0.444\nsamples = 3\nvalue = [1, 2]\nclass = sim", fillcolor="#399de57f"] ;
443 -> 445 ;
446 [label="gini = 0.0\nsamples = 2\nvalue = [0, 2]\nclass = sim", fillcolor="#399de5ff"] ;
445 -> 446 ;
447 [label="gini = 0.0\nsamples = 1\nvalue = [1, 0]\nclass = não", fillcolor="#e58139ff"] ;
445 -> 447 ;
448 [label="gini = 0.0\nsamples = 2\nvalue = [0, 2]\nclass = sim", fillcolor="#399de5ff"] ;
438 -> 448 ;
449 [label="gini = 0.0\nsamples = 2\nvalue = [2, 0]\nclass = não", fillcolor="#e58139ff"] ;
431 -> 449 ;
450 [label="preco <= 52951.709\ngini = 0.153\nsamples = 12\nvalue = [1, 11]\nclass = sim", fillcolor="#399de5e8"] ;
430 -> 450 ;
451 [label="gini = 0.0\nsamples = 10\nvalue = [0, 10]\nclass = sim", fillcolor="#399de5ff"] ;
450 -> 451 ;
452 [label="km_por_ano <= 28618.088\ngini = 0.5\nsamples = 2\nvalue = [1, 1]\nclass = não", fillcolor="#e5813900"] ;
450 -> 452 ;
453 [label="gini = 0.0\nsamples = 1\nvalue = [1, 0]\nclass = não", fillcolor="#e58139ff"] ;
452 -> 453 ;
454 [label="gini = 0.0\nsamples = 1\nvalue = [0, 1]\nclass = sim", fillcolor="#399de5ff"] ;
452 -> 454 ;
455 [label="idade_do_modelo <= 15.5\ngini = 0.48\nsamples = 20\nvalue = [8, 12]\nclass = sim", fillcolor="#399de555"] ;
279 -> 455 ;
456 [label="idade_do_modelo <= 13.5\ngini = 0.444\nsamples = 9\nvalue = [6, 3]\nclass = não", fillcolor="#e581397f"] ;
455 -> 456 ;
457 [label="preco <= 45654.52\ngini = 0.375\nsamples = 4\nvalue = [1, 3]\nclass = sim", fillcolor="#399de5aa"] ;
456 -> 457 ;
458 [label="gini = 0.0\nsamples = 1\nvalue = [1, 0]\nclass = não", fillcolor="#e58139ff"] ;
457 -> 458 ;
459 [label="gini = 0.0\nsamples = 3\nvalue = [0, 3]\nclass = sim", fillcolor="#399de5ff"] ;
457 -> 459 ;
460 [label="gini = 0.0\nsamples = 5\nvalue = [5, 0]\nclass = não", fillcolor="#e58139ff"] ;
456 -> 460 ;
461 [label="km_por_ano <= 31721.701\ngini = 0.298\nsamples = 11\nvalue = [2, 9]\nclass = sim", fillcolor="#399de5c6"] ;
455 -> 461 ;
462 [label="gini = 0.0\nsamples = 1\nvalue = [1, 0]\nclass = não", fillcolor="#e58139ff"] ;
461 -> 462 ;
463 [label="km_por_ano <= 33275.518\ngini = 0.18\nsamples = 10\nvalue = [1, 9]\nclass = sim", fillcolor="#399de5e3"] ;
461 -> 463 ;
464 [label="gini = 0.0\nsamples = 7\nvalue = [0, 7]\nclass = sim", fillcolor="#399de5ff"] ;
463 -> 464 ;
465 [label="km_por_ano <= 33456.568\ngini = 0.444\nsamples = 3\nvalue = [1, 2]\nclass = sim", fillcolor="#399de57f"] ;
463 -> 465 ;
466 [label="gini = 0.0\nsamples = 1\nvalue = [1, 0]\nclass = não", fillcolor="#e58139ff"] ;
465 -> 466 ;
467 [label="gini = 0.0\nsamples = 2\nvalue = [0, 2]\nclass = sim", fillcolor="#399de5ff"] ;
465 -> 467 ;
468 [label="preco <= 53897.561\ngini = 0.198\nsamples = 54\nvalue = [6, 48]\nclass = sim", fillcolor="#399de5df"] ;
278 -> 468 ;
469 [label="gini = 0.0\nsamples = 14\nvalue = [0, 14]\nclass = sim", fillcolor="#399de5ff"] ;
468 -> 469 ;
470 [label="preco <= 53928.471\ngini = 0.255\nsamples = 40\nvalue = [6, 34]\nclass = sim", fillcolor="#399de5d2"] ;
468 -> 470 ;
471 [label="gini = 0.0\nsamples = 1\nvalue = [1, 0]\nclass = não", fillcolor="#e58139ff"] ;
470 -> 471 ;
472 [label="km_por_ano <= 16631.725\ngini = 0.224\nsamples = 39\nvalue = [5, 34]\nclass = sim", fillcolor="#399de5da"] ;
470 -> 472 ;
473 [label="km_por_ano <= 15751.415\ngini = 0.408\nsamples = 7\nvalue = [2, 5]\nclass = sim", fillcolor="#399de599"] ;
472 -> 473 ;
474 [label="gini = 0.0\nsamples = 4\nvalue = [0, 4]\nclass = sim", fillcolor="#399de5ff"] ;
473 -> 474 ;
475 [label="idade_do_modelo <= 16.5\ngini = 0.444\nsamples = 3\nvalue = [2, 1]\nclass = não", fillcolor="#e581397f"] ;
473 -> 475 ;
476 [label="gini = 0.0\nsamples = 2\nvalue = [2, 0]\nclass = não", fillcolor="#e58139ff"] ;
475 -> 476 ;
477 [label="gini = 0.0\nsamples = 1\nvalue = [0, 1]\nclass = sim", fillcolor="#399de5ff"] ;
475 -> 477 ;
478 [label="preco <= 54690.225\ngini = 0.17\nsamples = 32\nvalue = [3, 29]\nclass = sim", fillcolor="#399de5e5"] ;
472 -> 478 ;
479 [label="preco <= 54654.654\ngini = 0.278\nsamples = 18\nvalue = [3, 15]\nclass = sim", fillcolor="#399de5cc"] ;
478 -> 479 ;
480 [label="km_por_ano <= 22653.875\ngini = 0.208\nsamples = 17\nvalue = [2, 15]\nclass = sim", fillcolor="#399de5dd"] ;
479 -> 480 ;
481 [label="km_por_ano <= 18675.586\ngini = 0.375\nsamples = 8\nvalue = [2, 6]\nclass = sim", fillcolor="#399de5aa"] ;
480 -> 481 ;
482 [label="gini = 0.0\nsamples = 5\nvalue = [0, 5]\nclass = sim", fillcolor="#399de5ff"] ;
481 -> 482 ;
483 [label="idade_do_modelo <= 16.5\ngini = 0.444\nsamples = 3\nvalue = [2, 1]\nclass = não", fillcolor="#e581397f"] ;
481 -> 483 ;
484 [label="gini = 0.0\nsamples = 2\nvalue = [2, 0]\nclass = não", fillcolor="#e58139ff"] ;
483 -> 484 ;
485 [label="gini = 0.0\nsamples = 1\nvalue = [0, 1]\nclass = sim", fillcolor="#399de5ff"] ;
483 -> 485 ;
486 [label="gini = 0.0\nsamples = 9\nvalue = [0, 9]\nclass = sim", fillcolor="#399de5ff"] ;
480 -> 486 ;
487 [label="gini = 0.0\nsamples = 1\nvalue = [1, 0]\nclass = não", fillcolor="#e58139ff"] ;
479 -> 487 ;
488 [label="gini = 0.0\nsamples = 14\nvalue = [0, 14]\nclass = sim", fillcolor="#399de5ff"] ;
478 -> 488 ;
489 [label="preco <= 55385.654\ngini = 0.398\nsamples = 153\nvalue = [42, 111]\nclass = sim", fillcolor="#399de59f"] ;
239 -> 489 ;
490 [label="gini = 0.0\nsamples = 2\nvalue = [2, 0]\nclass = não", fillcolor="#e58139ff"] ;
489 -> 490 ;
491 [label="km_por_ano <= 20569.779\ngini = 0.389\nsamples = 151\nvalue = [40, 111]\nclass = sim", fillcolor="#399de5a3"] ;
489 -> 491 ;
492 [label="idade_do_modelo <= 14.5\ngini = 0.271\nsamples = 68\nvalue = [11, 57]\nclass = sim", fillcolor="#399de5ce"] ;
491 -> 492 ;
493 [label="preco <= 59097.58\ngini = 0.124\nsamples = 30\nvalue = [2, 28]\nclass = sim", fillcolor="#399de5ed"] ;
492 -> 493 ;
494 [label="preco <= 55691.34\ngini = 0.071\nsamples = 27\nvalue = [1, 26]\nclass = sim", fillcolor="#399de5f5"] ;
493 -> 494 ;
495 [label="preco <= 55667.865\ngini = 0.278\nsamples = 6\nvalue = [1, 5]\nclass = sim", fillcolor="#399de5cc"] ;
494 -> 495 ;
496 [label="gini = 0.0\nsamples = 5\nvalue = [0, 5]\nclass = sim", fillcolor="#399de5ff"] ;
495 -> 496 ;
497 [label="gini = 0.0\nsamples = 1\nvalue = [1, 0]\nclass = não", fillcolor="#e58139ff"] ;
495 -> 497 ;
498 [label="gini = 0.0\nsamples = 21\nvalue = [0, 21]\nclass = sim", fillcolor="#399de5ff"] ;
494 -> 498 ;
499 [label="preco <= 59208.455\ngini = 0.444\nsamples = 3\nvalue = [1, 2]\nclass = sim", fillcolor="#399de57f"] ;
493 -> 499 ;
500 [label="gini = 0.0\nsamples = 1\nvalue = [1, 0]\nclass = não", fillcolor="#e58139ff"] ;
499 -> 500 ;
501 [label="gini = 0.0\nsamples = 2\nvalue = [0, 2]\nclass = sim", fillcolor="#399de5ff"] ;
499 -> 501 ;
502 [label="km_por_ano <= 19293.572\ngini = 0.361\nsamples = 38\nvalue = [9, 29]\nclass = sim", fillcolor="#399de5b0"] ;
492 -> 502 ;
503 [label="km_por_ano <= 19170.458\ngini = 0.412\nsamples = 31\nvalue = [9, 22]\nclass = sim", fillcolor="#399de597"] ;
502 -> 503 ;
504 [label="preco <= 56491.186\ngini = 0.391\nsamples = 30\nvalue = [8, 22]\nclass = sim", fillcolor="#399de5a2"] ;
503 -> 504 ;
505 [label="preco <= 56176.98\ngini = 0.48\nsamples = 10\nvalue = [4, 6]\nclass = sim", fillcolor="#399de555"] ;
504 -> 505 ;
506 [label="preco <= 55717.352\ngini = 0.375\nsamples = 8\nvalue = [2, 6]\nclass = sim", fillcolor="#399de5aa"] ;
505 -> 506 ;
507 [label="gini = 0.0\nsamples = 3\nvalue = [0, 3]\nclass = sim", fillcolor="#399de5ff"] ;
506 -> 507 ;
508 [label="km_por_ano <= 18360.155\ngini = 0.48\nsamples = 5\nvalue = [2, 3]\nclass = sim", fillcolor="#399de555"] ;
506 -> 508 ;
509 [label="km_por_ano <= 14570.159\ngini = 0.444\nsamples = 3\nvalue = [2, 1]\nclass = não", fillcolor="#e581397f"] ;
508 -> 509 ;
510 [label="gini = 0.0\nsamples = 1\nvalue = [0, 1]\nclass = sim", fillcolor="#399de5ff"] ;
509 -> 510 ;
511 [label="gini = 0.0\nsamples = 2\nvalue = [2, 0]\nclass = não", fillcolor="#e58139ff"] ;
509 -> 511 ;
512 [label="gini = 0.0\nsamples = 2\nvalue = [0, 2]\nclass = sim", fillcolor="#399de5ff"] ;
508 -> 512 ;
513 [label="gini = 0.0\nsamples = 2\nvalue = [2, 0]\nclass = não", fillcolor="#e58139ff"] ;
505 -> 513 ;
514 [label="km_por_ano <= 17982.766\ngini = 0.32\nsamples = 20\nvalue = [4, 16]\nclass = sim", fillcolor="#399de5bf"] ;
504 -> 514 ;
515 [label="idade_do_modelo <= 15.5\ngini = 0.266\nsamples = 19\nvalue = [3, 16]\nclass = sim", fillcolor="#399de5cf"] ;
514 -> 515 ;
516 [label="km_por_ano <= 14229.784\ngini = 0.469\nsamples = 8\nvalue = [3, 5]\nclass = sim", fillcolor="#399de566"] ;
515 -> 516 ;
517 [label="km_por_ano <= 12909.321\ngini = 0.48\nsamples = 5\nvalue = [3, 2]\nclass = não", fillcolor="#e5813955"] ;
516 -> 517 ;
518 [label="gini = 0.0\nsamples = 2\nvalue = [0, 2]\nclass = sim", fillcolor="#399de5ff"] ;
517 -> 518 ;
519 [label="gini = 0.0\nsamples = 3\nvalue = [3, 0]\nclass = não", fillcolor="#e58139ff"] ;
517 -> 519 ;
520 [label="gini = 0.0\nsamples = 3\nvalue = [0, 3]\nclass = sim", fillcolor="#399de5ff"] ;
516 -> 520 ;
521 [label="gini = 0.0\nsamples = 11\nvalue = [0, 11]\nclass = sim", fillcolor="#399de5ff"] ;
515 -> 521 ;
522 [label="gini = 0.0\nsamples = 1\nvalue = [1, 0]\nclass = não", fillcolor="#e58139ff"] ;
514 -> 522 ;
523 [label="gini = 0.0\nsamples = 1\nvalue = [1, 0]\nclass = não", fillcolor="#e58139ff"] ;
503 -> 523 ;
524 [label="gini = 0.0\nsamples = 7\nvalue = [0, 7]\nclass = sim", fillcolor="#399de5ff"] ;
502 -> 524 ;
525 [label="km_por_ano <= 31457.77\ngini = 0.455\nsamples = 83\nvalue = [29, 54]\nclass = sim", fillcolor="#399de576"] ;
491 -> 525 ;
526 [label="km_por_ano <= 21541.016\ngini = 0.47\nsamples = 77\nvalue = [29, 48]\nclass = sim", fillcolor="#399de565"] ;
525 -> 526 ;
527 [label="km_por_ano <= 21064.651\ngini = 0.444\nsamples = 6\nvalue = [4, 2]\nclass = não", fillcolor="#e581397f"] ;
526 -> 527 ;
528 [label="km_por_ano <= 20746.002\ngini = 0.444\nsamples = 3\nvalue = [1, 2]\nclass = sim", fillcolor="#399de57f"] ;
527 -> 528 ;
529 [label="gini = 0.0\nsamples = 1\nvalue = [1, 0]\nclass = não", fillcolor="#e58139ff"] ;
528 -> 529 ;
530 [label="gini = 0.0\nsamples = 2\nvalue = [0, 2]\nclass = sim", fillcolor="#399de5ff"] ;
528 -> 530 ;
531 [label="gini = 0.0\nsamples = 3\nvalue = [3, 0]\nclass = não", fillcolor="#e58139ff"] ;
527 -> 531 ;
532 [label="preco <= 56074.504\ngini = 0.456\nsamples = 71\nvalue = [25, 46]\nclass = sim", fillcolor="#399de574"] ;
526 -> 532 ;
533 [label="km_por_ano <= 28088.616\ngini = 0.497\nsamples = 13\nvalue = [7, 6]\nclass = não", fillcolor="#e5813924"] ;
532 -> 533 ;
534 [label="km_por_ano <= 24073.312\ngini = 0.444\nsamples = 9\nvalue = [3, 6]\nclass = sim", fillcolor="#399de57f"] ;
533 -> 534 ;
535 [label="preco <= 55659.301\ngini = 0.5\nsamples = 6\nvalue = [3, 3]\nclass = não", fillcolor="#e5813900"] ;
534 -> 535 ;
536 [label="km_por_ano <= 22460.754\ngini = 0.375\nsamples = 4\nvalue = [1, 3]\nclass = sim", fillcolor="#399de5aa"] ;
535 -> 536 ;
537 [label="gini = 0.0\nsamples = 2\nvalue = [0, 2]\nclass = sim", fillcolor="#399de5ff"] ;
536 -> 537 ;
538 [label="idade_do_modelo <= 12.5\ngini = 0.5\nsamples = 2\nvalue = [1, 1]\nclass = não", fillcolor="#e5813900"] ;
536 -> 538 ;
539 [label="gini = 0.0\nsamples = 1\nvalue = [0, 1]\nclass = sim", fillcolor="#399de5ff"] ;
538 -> 539 ;
540 [label="gini = 0.0\nsamples = 1\nvalue = [1, 0]\nclass = não", fillcolor="#e58139ff"] ;
538 -> 540 ;
541 [label="gini = 0.0\nsamples = 2\nvalue = [2, 0]\nclass = não", fillcolor="#e58139ff"] ;
535 -> 541 ;
542 [label="gini = 0.0\nsamples = 3\nvalue = [0, 3]\nclass = sim", fillcolor="#399de5ff"] ;
534 -> 542 ;
543 [label="gini = 0.0\nsamples = 4\nvalue = [4, 0]\nclass = não", fillcolor="#e58139ff"] ;
533 -> 543 ;
544 [label="preco <= 57123.42\ngini = 0.428\nsamples = 58\nvalue = [18, 40]\nclass = sim", fillcolor="#399de58c"] ;
532 -> 544 ;
545 [label="idade_do_modelo <= 13.5\ngini = 0.227\nsamples = 23\nvalue = [3, 20]\nclass = sim", fillcolor="#399de5d9"] ;
544 -> 545 ;
546 [label="preco <= 56500.865\ngini = 0.5\nsamples = 4\nvalue = [2, 2]\nclass = não", fillcolor="#e5813900"] ;
545 -> 546 ;
547 [label="gini = 0.0\nsamples = 1\nvalue = [1, 0]\nclass = não", fillcolor="#e58139ff"] ;
546 -> 547 ;
548 [label="preco <= 56652.715\ngini = 0.444\nsamples = 3\nvalue = [1, 2]\nclass = sim", fillcolor="#399de57f"] ;
546 -> 548 ;
549 [label="gini = 0.0\nsamples = 2\nvalue = [0, 2]\nclass = sim", fillcolor="#399de5ff"] ;
548 -> 549 ;
550 [label="gini = 0.0\nsamples = 1\nvalue = [1, 0]\nclass = não", fillcolor="#e58139ff"] ;
548 -> 550 ;
551 [label="km_por_ano <= 28743.617\ngini = 0.1\nsamples = 19\nvalue = [1, 18]\nclass = sim", fillcolor="#399de5f1"] ;
545 -> 551 ;
552 [label="gini = 0.0\nsamples = 14\nvalue = [0, 14]\nclass = sim", fillcolor="#399de5ff"] ;
551 -> 552 ;
553 [label="km_por_ano <= 28807.991\ngini = 0.32\nsamples = 5\nvalue = [1, 4]\nclass = sim", fillcolor="#399de5bf"] ;
551 -> 553 ;
554 [label="gini = 0.0\nsamples = 1\nvalue = [1, 0]\nclass = não", fillcolor="#e58139ff"] ;
553 -> 554 ;
555 [label="gini = 0.0\nsamples = 4\nvalue = [0, 4]\nclass = sim", fillcolor="#399de5ff"] ;
553 -> 555 ;
556 [label="preco <= 57510.311\ngini = 0.49\nsamples = 35\nvalue = [15, 20]\nclass = sim", fillcolor="#399de540"] ;
544 -> 556 ;
557 [label="idade_do_modelo <= 13.5\ngini = 0.278\nsamples = 6\nvalue = [5, 1]\nclass = não", fillcolor="#e58139cc"] ;
556 -> 557 ;
558 [label="gini = 0.0\nsamples = 1\nvalue = [0, 1]\nclass = sim", fillcolor="#399de5ff"] ;
557 -> 558 ;
559 [label="gini = 0.0\nsamples = 5\nvalue = [5, 0]\nclass = não", fillcolor="#e58139ff"] ;
557 -> 559 ;
560 [label="km_por_ano <= 26286.154\ngini = 0.452\nsamples = 29\nvalue = [10, 19]\nclass = sim", fillcolor="#399de579"] ;
556 -> 560 ;
561 [label="km_por_ano <= 23868.122\ngini = 0.494\nsamples = 18\nvalue = [8, 10]\nclass = sim", fillcolor="#399de533"] ;
560 -> 561 ;
562 [label="km_por_ano <= 22294.187\ngini = 0.32\nsamples = 10\nvalue = [2, 8]\nclass = sim", fillcolor="#399de5bf"] ;
561 -> 562 ;
563 [label="km_por_ano <= 21833.916\ngini = 0.444\nsamples = 3\nvalue = [2, 1]\nclass = não", fillcolor="#e581397f"] ;
562 -> 563 ;
564 [label="gini = 0.0\nsamples = 1\nvalue = [0, 1]\nclass = sim", fillcolor="#399de5ff"] ;
563 -> 564 ;
565 [label="gini = 0.0\nsamples = 2\nvalue = [2, 0]\nclass = não", fillcolor="#e58139ff"] ;
563 -> 565 ;
566 [label="gini = 0.0\nsamples = 7\nvalue = [0, 7]\nclass = sim", fillcolor="#399de5ff"] ;
562 -> 566 ;
567 [label="idade_do_modelo <= 16.5\ngini = 0.375\nsamples = 8\nvalue = [6, 2]\nclass = não", fillcolor="#e58139aa"] ;
561 -> 567 ;
568 [label="km_por_ano <= 25691.504\ngini = 0.444\nsamples = 6\nvalue = [4, 2]\nclass = não", fillcolor="#e581397f"] ;
567 -> 568 ;
569 [label="preco <= 58488.695\ngini = 0.32\nsamples = 5\nvalue = [4, 1]\nclass = não", fillcolor="#e58139bf"] ;
568 -> 569 ;
570 [label="gini = 0.0\nsamples = 3\nvalue = [3, 0]\nclass = não", fillcolor="#e58139ff"] ;
569 -> 570 ;
571 [label="preco <= 58803.5\ngini = 0.5\nsamples = 2\nvalue = [1, 1]\nclass = não", fillcolor="#e5813900"] ;
569 -> 571 ;
572 [label="gini = 0.0\nsamples = 1\nvalue = [0, 1]\nclass = sim", fillcolor="#399de5ff"] ;
571 -> 572 ;
573 [label="gini = 0.0\nsamples = 1\nvalue = [1, 0]\nclass = não", fillcolor="#e58139ff"] ;
571 -> 573 ;
574 [label="gini = 0.0\nsamples = 1\nvalue = [0, 1]\nclass = sim", fillcolor="#399de5ff"] ;
568 -> 574 ;
575 [label="gini = 0.0\nsamples = 2\nvalue = [2, 0]\nclass = não", fillcolor="#e58139ff"] ;
567 -> 575 ;
576 [label="km_por_ano <= 30608.842\ngini = 0.298\nsamples = 11\nvalue = [2, 9]\nclass = sim", fillcolor="#399de5c6"] ;
560 -> 576 ;
577 [label="preco <= 57722.16\ngini = 0.18\nsamples = 10\nvalue = [1, 9]\nclass = sim", fillcolor="#399de5e3"] ;
576 -> 577 ;
578 [label="gini = 0.0\nsamples = 1\nvalue = [1, 0]\nclass = não", fillcolor="#e58139ff"] ;
577 -> 578 ;
579 [label="gini = 0.0\nsamples = 9\nvalue = [0, 9]\nclass = sim", fillcolor="#399de5ff"] ;
577 -> 579 ;
580 [label="gini = 0.0\nsamples = 1\nvalue = [1, 0]\nclass = não", fillcolor="#e58139ff"] ;
576 -> 580 ;
581 [label="gini = 0.0\nsamples = 6\nvalue = [0, 6]\nclass = sim", fillcolor="#399de5ff"] ;
525 -> 581 ;
582 [label="gini = 0.0\nsamples = 2\nvalue = [2, 0]\nclass = não", fillcolor="#e58139ff"] ;
238 -> 582 ;
583 [label="gini = 0.0\nsamples = 8\nvalue = [0, 8]\nclass = sim", fillcolor="#399de5ff"] ;
237 -> 583 ;
584 [label="gini = 0.0\nsamples = 1\nvalue = [1, 0]\nclass = não", fillcolor="#e58139ff"] ;
236 -> 584 ;
585 [label="preco <= 47011.109\ngini = 0.153\nsamples = 24\nvalue = [2, 22]\nclass = sim", fillcolor="#399de5e8"] ;
235 -> 585 ;
586 [label="preco <= 43074.605\ngini = 0.408\nsamples = 7\nvalue = [2, 5]\nclass = sim", fillcolor="#399de599"] ;
585 -> 586 ;
587 [label="gini = 0.0\nsamples = 4\nvalue = [0, 4]\nclass = sim", fillcolor="#399de5ff"] ;
586 -> 587 ;
588 [label="km_por_ano <= 34753.697\ngini = 0.444\nsamples = 3\nvalue = [2, 1]\nclass = não", fillcolor="#e581397f"] ;
586 -> 588 ;
589 [label="gini = 0.0\nsamples = 1\nvalue = [0, 1]\nclass = sim", fillcolor="#399de5ff"] ;
588 -> 589 ;
590 [label="gini = 0.0\nsamples = 2\nvalue = [2, 0]\nclass = não", fillcolor="#e58139ff"] ;
588 -> 590 ;
591 [label="gini = 0.0\nsamples = 17\nvalue = [0, 17]\nclass = sim", fillcolor="#399de5ff"] ;
585 -> 591 ;
592 [label="km_por_ano <= 14046.32\ngini = 0.28\nsamples = 576\nvalue = [97, 479]\nclass = sim", fillcolor="#399de5cb"] ;
50 -> 592 ;
593 [label="preco <= 41904.02\ngini = 0.361\nsamples = 72\nvalue = [17, 55]\nclass = sim", fillcolor="#399de5b0"] ;
592 -> 593 ;
594 [label="preco <= 41261.701\ngini = 0.32\nsamples = 5\nvalue = [4, 1]\nclass = não", fillcolor="#e58139bf"] ;
593 -> 594 ;
595 [label="preco <= 41031.766\ngini = 0.5\nsamples = 2\nvalue = [1, 1]\nclass = não", fillcolor="#e5813900"] ;
594 -> 595 ;
596 [label="gini = 0.0\nsamples = 1\nvalue = [1, 0]\nclass = não", fillcolor="#e58139ff"] ;
595 -> 596 ;
597 [label="gini = 0.0\nsamples = 1\nvalue = [0, 1]\nclass = sim", fillcolor="#399de5ff"] ;
595 -> 597 ;
598 [label="gini = 0.0\nsamples = 3\nvalue = [3, 0]\nclass = não", fillcolor="#e58139ff"] ;
594 -> 598 ;
599 [label="preco <= 57363.846\ngini = 0.313\nsamples = 67\nvalue = [13, 54]\nclass = sim", fillcolor="#399de5c2"] ;
593 -> 599 ;
600 [label="preco <= 56936.496\ngini = 0.352\nsamples = 57\nvalue = [13, 44]\nclass = sim", fillcolor="#399de5b4"] ;
599 -> 600 ;
601 [label="km_por_ano <= 13949.759\ngini = 0.337\nsamples = 56\nvalue = [12, 44]\nclass = sim", fillcolor="#399de5b9"] ;
600 -> 601 ;
602 [label="preco <= 44311.246\ngini = 0.32\nsamples = 55\nvalue = [11, 44]\nclass = sim", fillcolor="#399de5bf"] ;
601 -> 602 ;
603 [label="gini = 0.0\nsamples = 6\nvalue = [0, 6]\nclass = sim", fillcolor="#399de5ff"] ;
602 -> 603 ;
604 [label="preco <= 44720.416\ngini = 0.348\nsamples = 49\nvalue = [11, 38]\nclass = sim", fillcolor="#399de5b5"] ;
602 -> 604 ;
605 [label="gini = 0.0\nsamples = 1\nvalue = [1, 0]\nclass = não", fillcolor="#e58139ff"] ;
604 -> 605 ;
606 [label="preco <= 46326.385\ngini = 0.33\nsamples = 48\nvalue = [10, 38]\nclass = sim", fillcolor="#399de5bc"] ;
604 -> 606 ;
607 [label="gini = 0.0\nsamples = 6\nvalue = [0, 6]\nclass = sim", fillcolor="#399de5ff"] ;
606 -> 607 ;
608 [label="preco <= 46666.686\ngini = 0.363\nsamples = 42\nvalue = [10, 32]\nclass = sim", fillcolor="#399de5af"] ;
606 -> 608 ;
609 [label="gini = 0.0\nsamples = 1\nvalue = [1, 0]\nclass = não", fillcolor="#e58139ff"] ;
608 -> 609 ;
610 [label="preco <= 55907.459\ngini = 0.343\nsamples = 41\nvalue = [9, 32]\nclass = sim", fillcolor="#399de5b7"] ;
608 -> 610 ;
611 [label="preco <= 55776.799\ngini = 0.368\nsamples = 37\nvalue = [9, 28]\nclass = sim", fillcolor="#399de5ad"] ;
610 -> 611 ;
612 [label="idade_do_modelo <= 19.5\ngini = 0.32\nsamples = 35\nvalue = [7, 28]\nclass = sim", fillcolor="#399de5bf"] ;
611 -> 612 ;
613 [label="preco <= 54412.014\ngini = 0.426\nsamples = 13\nvalue = [4, 9]\nclass = sim", fillcolor="#399de58e"] ;
612 -> 613 ;
614 [label="km_por_ano <= 11249.287\ngini = 0.375\nsamples = 12\nvalue = [3, 9]\nclass = sim", fillcolor="#399de5aa"] ;
613 -> 614 ;
615 [label="gini = 0.0\nsamples = 5\nvalue = [0, 5]\nclass = sim", fillcolor="#399de5ff"] ;
614 -> 615 ;
616 [label="km_por_ano <= 12708.958\ngini = 0.49\nsamples = 7\nvalue = [3, 4]\nclass = sim", fillcolor="#399de540"] ;
614 -> 616 ;
617 [label="km_por_ano <= 11898.655\ngini = 0.375\nsamples = 4\nvalue = [3, 1]\nclass = não", fillcolor="#e58139aa"] ;
616 -> 617 ;
618 [label="km_por_ano <= 11565.522\ngini = 0.5\nsamples = 2\nvalue = [1, 1]\nclass = não", fillcolor="#e5813900"] ;
617 -> 618 ;
619 [label="gini = 0.0\nsamples = 1\nvalue = [1, 0]\nclass = não", fillcolor="#e58139ff"] ;
618 -> 619 ;
620 [label="gini = 0.0\nsamples = 1\nvalue = [0, 1]\nclass = sim", fillcolor="#399de5ff"] ;
618 -> 620 ;
621 [label="gini = 0.0\nsamples = 2\nvalue = [2, 0]\nclass = não", fillcolor="#e58139ff"] ;
617 -> 621 ;
622 [label="gini = 0.0\nsamples = 3\nvalue = [0, 3]\nclass = sim", fillcolor="#399de5ff"] ;
616 -> 622 ;
623 [label="gini = 0.0\nsamples = 1\nvalue = [1, 0]\nclass = não", fillcolor="#e58139ff"] ;
613 -> 623 ;
624 [label="preco <= 47572.551\ngini = 0.236\nsamples = 22\nvalue = [3, 19]\nclass = sim", fillcolor="#399de5d7"] ;
612 -> 624 ;
625 [label="preco <= 47356.996\ngini = 0.5\nsamples = 2\nvalue = [1, 1]\nclass = não", fillcolor="#e5813900"] ;
624 -> 625 ;
626 [label="gini = 0.0\nsamples = 1\nvalue = [0, 1]\nclass = sim", fillcolor="#399de5ff"] ;
625 -> 626 ;
627 [label="gini = 0.0\nsamples = 1\nvalue = [1, 0]\nclass = não", fillcolor="#e58139ff"] ;
625 -> 627 ;
628 [label="preco <= 52374.965\ngini = 0.18\nsamples = 20\nvalue = [2, 18]\nclass = sim", fillcolor="#399de5e3"] ;
624 -> 628 ;
629 [label="preco <= 51512.18\ngini = 0.278\nsamples = 12\nvalue = [2, 10]\nclass = sim", fillcolor="#399de5cc"] ;
628 -> 629 ;
630 [label="km_por_ano <= 9081.506\ngini = 0.165\nsamples = 11\nvalue = [1, 10]\nclass = sim", fillcolor="#399de5e6"] ;
629 -> 630 ;
631 [label="km_por_ano <= 7920.367\ngini = 0.444\nsamples = 3\nvalue = [1, 2]\nclass = sim", fillcolor="#399de57f"] ;
630 -> 631 ;
632 [label="gini = 0.0\nsamples = 2\nvalue = [0, 2]\nclass = sim", fillcolor="#399de5ff"] ;
631 -> 632 ;
633 [label="gini = 0.0\nsamples = 1\nvalue = [1, 0]\nclass = não", fillcolor="#e58139ff"] ;
631 -> 633 ;
634 [label="gini = 0.0\nsamples = 8\nvalue = [0, 8]\nclass = sim", fillcolor="#399de5ff"] ;
630 -> 634 ;
635 [label="gini = 0.0\nsamples = 1\nvalue = [1, 0]\nclass = não", fillcolor="#e58139ff"] ;
629 -> 635 ;
636 [label="gini = 0.0\nsamples = 8\nvalue = [0, 8]\nclass = sim", fillcolor="#399de5ff"] ;
628 -> 636 ;
637 [label="gini = 0.0\nsamples = 2\nvalue = [2, 0]\nclass = não", fillcolor="#e58139ff"] ;
611 -> 637 ;
638 [label="gini = 0.0\nsamples = 4\nvalue = [0, 4]\nclass = sim", fillcolor="#399de5ff"] ;
610 -> 638 ;
639 [label="gini = 0.0\nsamples = 1\nvalue = [1, 0]\nclass = não", fillcolor="#e58139ff"] ;
601 -> 639 ;
640 [label="gini = 0.0\nsamples = 1\nvalue = [1, 0]\nclass = não", fillcolor="#e58139ff"] ;
600 -> 640 ;
641 [label="gini = 0.0\nsamples = 10\nvalue = [0, 10]\nclass = sim", fillcolor="#399de5ff"] ;
599 -> 641 ;
642 [label="km_por_ano <= 16102.251\ngini = 0.267\nsamples = 504\nvalue = [80, 424]\nclass = sim", fillcolor="#399de5cf"] ;
592 -> 642 ;
643 [label="km_por_ano <= 15282.292\ngini = 0.094\nsamples = 61\nvalue = [3, 58]\nclass = sim", fillcolor="#399de5f2"] ;
642 -> 643 ;
644 [label="km_por_ano <= 15223.552\ngini = 0.165\nsamples = 33\nvalue = [3, 30]\nclass = sim", fillcolor="#399de5e6"] ;
643 -> 644 ;
645 [label="preco <= 57609.455\ngini = 0.117\nsamples = 32\nvalue = [2, 30]\nclass = sim", fillcolor="#399de5ee"] ;
644 -> 645 ;
646 [label="km_por_ano <= 14809.951\ngini = 0.067\nsamples = 29\nvalue = [1, 28]\nclass = sim", fillcolor="#399de5f6"] ;
645 -> 646 ;
647 [label="gini = 0.0\nsamples = 21\nvalue = [0, 21]\nclass = sim", fillcolor="#399de5ff"] ;
646 -> 647 ;
648 [label="km_por_ano <= 14937.089\ngini = 0.219\nsamples = 8\nvalue = [1, 7]\nclass = sim", fillcolor="#399de5db"] ;
646 -> 648 ;
649 [label="gini = 0.0\nsamples = 1\nvalue = [1, 0]\nclass = não", fillcolor="#e58139ff"] ;
648 -> 649 ;
650 [label="gini = 0.0\nsamples = 7\nvalue = [0, 7]\nclass = sim", fillcolor="#399de5ff"] ;
648 -> 650 ;
651 [label="preco <= 58000.334\ngini = 0.444\nsamples = 3\nvalue = [1, 2]\nclass = sim", fillcolor="#399de57f"] ;
645 -> 651 ;
652 [label="gini = 0.0\nsamples = 1\nvalue = [1, 0]\nclass = não", fillcolor="#e58139ff"] ;
651 -> 652 ;
653 [label="gini = 0.0\nsamples = 2\nvalue = [0, 2]\nclass = sim", fillcolor="#399de5ff"] ;
651 -> 653 ;
654 [label="gini = 0.0\nsamples = 1\nvalue = [1, 0]\nclass = não", fillcolor="#e58139ff"] ;
644 -> 654 ;
655 [label="gini = 0.0\nsamples = 28\nvalue = [0, 28]\nclass = sim", fillcolor="#399de5ff"] ;
643 -> 655 ;
656 [label="km_por_ano <= 16453.893\ngini = 0.287\nsamples = 443\nvalue = [77, 366]\nclass = sim", fillcolor="#399de5c9"] ;
642 -> 656 ;
657 [label="idade_do_modelo <= 18.5\ngini = 0.494\nsamples = 9\nvalue = [5, 4]\nclass = não", fillcolor="#e5813933"] ;
656 -> 657 ;
658 [label="gini = 0.0\nsamples = 2\nvalue = [0, 2]\nclass = sim", fillcolor="#399de5ff"] ;
657 -> 658 ;
659 [label="preco <= 55823.785\ngini = 0.408\nsamples = 7\nvalue = [5, 2]\nclass = não", fillcolor="#e5813999"] ;
657 -> 659 ;
660 [label="gini = 0.0\nsamples = 4\nvalue = [4, 0]\nclass = não", fillcolor="#e58139ff"] ;
659 -> 660 ;
661 [label="preco <= 57649.176\ngini = 0.444\nsamples = 3\nvalue = [1, 2]\nclass = sim", fillcolor="#399de57f"] ;
659 -> 661 ;
662 [label="gini = 0.0\nsamples = 2\nvalue = [0, 2]\nclass = sim", fillcolor="#399de5ff"] ;
661 -> 662 ;
663 [label="gini = 0.0\nsamples = 1\nvalue = [1, 0]\nclass = não", fillcolor="#e58139ff"] ;
661 -> 663 ;
664 [label="preco <= 46233.705\ngini = 0.277\nsamples = 434\nvalue = [72, 362]\nclass = sim", fillcolor="#399de5cc"] ;
656 -> 664 ;
665 [label="km_por_ano <= 20366.197\ngini = 0.213\nsamples = 132\nvalue = [16, 116]\nclass = sim", fillcolor="#399de5dc"] ;
664 -> 665 ;
666 [label="gini = 0.0\nsamples = 37\nvalue = [0, 37]\nclass = sim", fillcolor="#399de5ff"] ;
665 -> 666 ;
667 [label="km_por_ano <= 20395.971\ngini = 0.28\nsamples = 95\nvalue = [16, 79]\nclass = sim", fillcolor="#399de5cb"] ;
665 -> 667 ;
668 [label="gini = 0.0\nsamples = 1\nvalue = [1, 0]\nclass = não", fillcolor="#e58139ff"] ;
667 -> 668 ;
669 [label="km_por_ano <= 24330.002\ngini = 0.268\nsamples = 94\nvalue = [15, 79]\nclass = sim", fillcolor="#399de5cf"] ;
667 -> 669 ;
670 [label="km_por_ano <= 23752.249\ngini = 0.375\nsamples = 36\nvalue = [9, 27]\nclass = sim", fillcolor="#399de5aa"] ;
669 -> 670 ;
671 [label="idade_do_modelo <= 20.5\ngini = 0.305\nsamples = 32\nvalue = [6, 26]\nclass = sim", fillcolor="#399de5c4"] ;
670 -> 671 ;
672 [label="preco <= 42523.875\ngini = 0.18\nsamples = 20\nvalue = [2, 18]\nclass = sim", fillcolor="#399de5e3"] ;
671 -> 672 ;
673 [label="km_por_ano <= 21372.84\ngini = 0.298\nsamples = 11\nvalue = [2, 9]\nclass = sim", fillcolor="#399de5c6"] ;
672 -> 673 ;
674 [label="gini = 0.0\nsamples = 1\nvalue = [1, 0]\nclass = não", fillcolor="#e58139ff"] ;
673 -> 674 ;
675 [label="idade_do_modelo <= 19.5\ngini = 0.18\nsamples = 10\nvalue = [1, 9]\nclass = sim", fillcolor="#399de5e3"] ;
673 -> 675 ;
676 [label="gini = 0.0\nsamples = 6\nvalue = [0, 6]\nclass = sim", fillcolor="#399de5ff"] ;
675 -> 676 ;
677 [label="km_por_ano <= 22432.591\ngini = 0.375\nsamples = 4\nvalue = [1, 3]\nclass = sim", fillcolor="#399de5aa"] ;
675 -> 677 ;
678 [label="km_por_ano <= 21813.799\ngini = 0.5\nsamples = 2\nvalue = [1, 1]\nclass = não", fillcolor="#e5813900"] ;
677 -> 678 ;
679 [label="gini = 0.0\nsamples = 1\nvalue = [0, 1]\nclass = sim", fillcolor="#399de5ff"] ;
678 -> 679 ;
680 [label="gini = 0.0\nsamples = 1\nvalue = [1, 0]\nclass = não", fillcolor="#e58139ff"] ;
678 -> 680 ;
681 [label="gini = 0.0\nsamples = 2\nvalue = [0, 2]\nclass = sim", fillcolor="#399de5ff"] ;
677 -> 681 ;
682 [label="gini = 0.0\nsamples = 9\nvalue = [0, 9]\nclass = sim", fillcolor="#399de5ff"] ;
672 -> 682 ;
683 [label="km_por_ano <= 23061.038\ngini = 0.444\nsamples = 12\nvalue = [4, 8]\nclass = sim", fillcolor="#399de57f"] ;
671 -> 683 ;
684 [label="preco <= 42800.311\ngini = 0.32\nsamples = 10\nvalue = [2, 8]\nclass = sim", fillcolor="#399de5bf"] ;
683 -> 684 ;
685 [label="preco <= 41812.379\ngini = 0.5\nsamples = 4\nvalue = [2, 2]\nclass = não", fillcolor="#e5813900"] ;
684 -> 685 ;
686 [label="gini = 0.0\nsamples = 2\nvalue = [0, 2]\nclass = sim", fillcolor="#399de5ff"] ;
685 -> 686 ;
687 [label="gini = 0.0\nsamples = 2\nvalue = [2, 0]\nclass = não", fillcolor="#e58139ff"] ;
685 -> 687 ;
688 [label="gini = 0.0\nsamples = 6\nvalue = [0, 6]\nclass = sim", fillcolor="#399de5ff"] ;
684 -> 688 ;
689 [label="gini = 0.0\nsamples = 2\nvalue = [2, 0]\nclass = não", fillcolor="#e58139ff"] ;
683 -> 689 ;
690 [label="km_por_ano <= 24073.312\ngini = 0.375\nsamples = 4\nvalue = [3, 1]\nclass = não", fillcolor="#e58139aa"] ;
670 -> 690 ;
691 [label="gini = 0.0\nsamples = 2\nvalue = [2, 0]\nclass = não", fillcolor="#e58139ff"] ;
690 -> 691 ;
692 [label="km_por_ano <= 24286.55\ngini = 0.5\nsamples = 2\nvalue = [1, 1]\nclass = não", fillcolor="#e5813900"] ;
690 -> 692 ;
693 [label="gini = 0.0\nsamples = 1\nvalue = [0, 1]\nclass = sim", fillcolor="#399de5ff"] ;
692 -> 693 ;
694 [label="gini = 0.0\nsamples = 1\nvalue = [1, 0]\nclass = não", fillcolor="#e58139ff"] ;
692 -> 694 ;
695 [label="preco <= 43551.475\ngini = 0.185\nsamples = 58\nvalue = [6, 52]\nclass = sim", fillcolor="#399de5e2"] ;
669 -> 695 ;
696 [label="preco <= 43429.02\ngini = 0.285\nsamples = 29\nvalue = [5, 24]\nclass = sim", fillcolor="#399de5ca"] ;
695 -> 696 ;
697 [label="idade_do_modelo <= 19.5\ngini = 0.198\nsamples = 27\nvalue = [3, 24]\nclass = sim", fillcolor="#399de5df"] ;
696 -> 697 ;
698 [label="km_por_ano <= 32791.913\ngini = 0.278\nsamples = 18\nvalue = [3, 15]\nclass = sim", fillcolor="#399de5cc"] ;
697 -> 698 ;
699 [label="preco <= 41942.18\ngini = 0.219\nsamples = 16\nvalue = [2, 14]\nclass = sim", fillcolor="#399de5db"] ;
698 -> 699 ;
700 [label="preco <= 41616.615\ngini = 0.408\nsamples = 7\nvalue = [2, 5]\nclass = sim", fillcolor="#399de599"] ;
699 -> 700 ;
701 [label="gini = 0.0\nsamples = 4\nvalue = [0, 4]\nclass = sim", fillcolor="#399de5ff"] ;
700 -> 701 ;
702 [label="km_por_ano <= 30127.649\ngini = 0.444\nsamples = 3\nvalue = [2, 1]\nclass = não", fillcolor="#e581397f"] ;
700 -> 702 ;
703 [label="gini = 0.0\nsamples = 2\nvalue = [2, 0]\nclass = não", fillcolor="#e58139ff"] ;
702 -> 703 ;
704 [label="gini = 0.0\nsamples = 1\nvalue = [0, 1]\nclass = sim", fillcolor="#399de5ff"] ;
702 -> 704 ;
705 [label="gini = 0.0\nsamples = 9\nvalue = [0, 9]\nclass = sim", fillcolor="#399de5ff"] ;
699 -> 705 ;
706 [label="km_por_ano <= 33485.539\ngini = 0.5\nsamples = 2\nvalue = [1, 1]\nclass = não", fillcolor="#e5813900"] ;
698 -> 706 ;
707 [label="gini = 0.0\nsamples = 1\nvalue = [1, 0]\nclass = não", fillcolor="#e58139ff"] ;
706 -> 707 ;
708 [label="gini = 0.0\nsamples = 1\nvalue = [0, 1]\nclass = sim", fillcolor="#399de5ff"] ;
706 -> 708 ;
709 [label="gini = 0.0\nsamples = 9\nvalue = [0, 9]\nclass = sim", fillcolor="#399de5ff"] ;
697 -> 709 ;
710 [label="gini = 0.0\nsamples = 2\nvalue = [2, 0]\nclass = não", fillcolor="#e58139ff"] ;
696 -> 710 ;
711 [label="km_por_ano <= 30736.785\ngini = 0.067\nsamples = 29\nvalue = [1, 28]\nclass = sim", fillcolor="#399de5f6"] ;
695 -> 711 ;
712 [label="gini = 0.0\nsamples = 21\nvalue = [0, 21]\nclass = sim", fillcolor="#399de5ff"] ;
711 -> 712 ;
713 [label="km_por_ano <= 30835.759\ngini = 0.219\nsamples = 8\nvalue = [1, 7]\nclass = sim", fillcolor="#399de5db"] ;
711 -> 713 ;
714 [label="gini = 0.0\nsamples = 1\nvalue = [1, 0]\nclass = não", fillcolor="#e58139ff"] ;
713 -> 714 ;
715 [label="gini = 0.0\nsamples = 7\nvalue = [0, 7]\nclass = sim", fillcolor="#399de5ff"] ;
713 -> 715 ;
716 [label="preco <= 46317.326\ngini = 0.302\nsamples = 302\nvalue = [56, 246]\nclass = sim", fillcolor="#399de5c5"] ;
664 -> 716 ;
717 [label="km_por_ano <= 24132.054\ngini = 0.444\nsamples = 3\nvalue = [2, 1]\nclass = não", fillcolor="#e581397f"] ;
716 -> 717 ;
718 [label="gini = 0.0\nsamples = 2\nvalue = [2, 0]\nclass = não", fillcolor="#e58139ff"] ;
717 -> 718 ;
719 [label="gini = 0.0\nsamples = 1\nvalue = [0, 1]\nclass = sim", fillcolor="#399de5ff"] ;
717 -> 719 ;
720 [label="km_por_ano <= 19808.561\ngini = 0.296\nsamples = 299\nvalue = [54, 245]\nclass = sim", fillcolor="#399de5c7"] ;
716 -> 720 ;
721 [label="preco <= 51683.375\ngini = 0.372\nsamples = 77\nvalue = [19, 58]\nclass = sim", fillcolor="#399de5ab"] ;
720 -> 721 ;
722 [label="km_por_ano <= 19749.017\ngini = 0.231\nsamples = 30\nvalue = [4, 26]\nclass = sim", fillcolor="#399de5d8"] ;
721 -> 722 ;
723 [label="km_por_ano <= 16941.521\ngini = 0.133\nsamples = 28\nvalue = [2, 26]\nclass = sim", fillcolor="#399de5eb"] ;
722 -> 723 ;
724 [label="km_por_ano <= 16671.152\ngini = 0.5\nsamples = 2\nvalue = [1, 1]\nclass = não", fillcolor="#e5813900"] ;
723 -> 724 ;
725 [label="gini = 0.0\nsamples = 1\nvalue = [0, 1]\nclass = sim", fillcolor="#399de5ff"] ;
724 -> 725 ;
726 [label="gini = 0.0\nsamples = 1\nvalue = [1, 0]\nclass = não", fillcolor="#e58139ff"] ;
724 -> 726 ;
727 [label="km_por_ano <= 18219.338\ngini = 0.074\nsamples = 26\nvalue = [1, 25]\nclass = sim", fillcolor="#399de5f5"] ;
723 -> 727 ;
728 [label="gini = 0.0\nsamples = 15\nvalue = [0, 15]\nclass = sim", fillcolor="#399de5ff"] ;
727 -> 728 ;
729 [label="km_por_ano <= 18460.739\ngini = 0.165\nsamples = 11\nvalue = [1, 10]\nclass = sim", fillcolor="#399de5e6"] ;
727 -> 729 ;
730 [label="gini = 0.0\nsamples = 1\nvalue = [1, 0]\nclass = não", fillcolor="#e58139ff"] ;
729 -> 730 ;
731 [label="gini = 0.0\nsamples = 10\nvalue = [0, 10]\nclass = sim", fillcolor="#399de5ff"] ;
729 -> 731 ;
732 [label="gini = 0.0\nsamples = 2\nvalue = [2, 0]\nclass = não", fillcolor="#e58139ff"] ;
722 -> 732 ;
733 [label="preco <= 55846.205\ngini = 0.435\nsamples = 47\nvalue = [15, 32]\nclass = sim", fillcolor="#399de587"] ;
721 -> 733 ;
734 [label="preco <= 54771.084\ngini = 0.491\nsamples = 23\nvalue = [10, 13]\nclass = sim", fillcolor="#399de53b"] ;
733 -> 734 ;
735 [label="preco <= 53689.82\ngini = 0.415\nsamples = 17\nvalue = [5, 12]\nclass = sim", fillcolor="#399de595"] ;
734 -> 735 ;
736 [label="km_por_ano <= 19449.679\ngini = 0.486\nsamples = 12\nvalue = [5, 7]\nclass = sim", fillcolor="#399de549"] ;
735 -> 736 ;
737 [label="km_por_ano <= 18760.076\ngini = 0.5\nsamples = 10\nvalue = [5, 5]\nclass = não", fillcolor="#e5813900"] ;
736 -> 737 ;
738 [label="preco <= 51813.85\ngini = 0.408\nsamples = 7\nvalue = [2, 5]\nclass = sim", fillcolor="#399de599"] ;
737 -> 738 ;
739 [label="gini = 0.0\nsamples = 1\nvalue = [1, 0]\nclass = não", fillcolor="#e58139ff"] ;
738 -> 739 ;
740 [label="preco <= 52033.221\ngini = 0.278\nsamples = 6\nvalue = [1, 5]\nclass = sim", fillcolor="#399de5cc"] ;
738 -> 740 ;
741 [label="preco <= 51930.875\ngini = 0.444\nsamples = 3\nvalue = [1, 2]\nclass = sim", fillcolor="#399de57f"] ;
740 -> 741 ;
742 [label="gini = 0.0\nsamples = 2\nvalue = [0, 2]\nclass = sim", fillcolor="#399de5ff"] ;
741 -> 742 ;
743 [label="gini = 0.0\nsamples = 1\nvalue = [1, 0]\nclass = não", fillcolor="#e58139ff"] ;
741 -> 743 ;
744 [label="gini = 0.0\nsamples = 3\nvalue = [0, 3]\nclass = sim", fillcolor="#399de5ff"] ;
740 -> 744 ;
745 [label="gini = 0.0\nsamples = 3\nvalue = [3, 0]\nclass = não", fillcolor="#e58139ff"] ;
737 -> 745 ;
746 [label="gini = 0.0\nsamples = 2\nvalue = [0, 2]\nclass = sim", fillcolor="#399de5ff"] ;
736 -> 746 ;
747 [label="gini = 0.0\nsamples = 5\nvalue = [0, 5]\nclass = sim", fillcolor="#399de5ff"] ;
735 -> 747 ;
748 [label="idade_do_modelo <= 18.5\ngini = 0.278\nsamples = 6\nvalue = [5, 1]\nclass = não", fillcolor="#e58139cc"] ;
734 -> 748 ;
749 [label="gini = 0.0\nsamples = 1\nvalue = [0, 1]\nclass = sim", fillcolor="#399de5ff"] ;
748 -> 749 ;
750 [label="gini = 0.0\nsamples = 5\nvalue = [5, 0]\nclass = não", fillcolor="#e58139ff"] ;
748 -> 750 ;
751 [label="preco <= 57560.475\ngini = 0.33\nsamples = 24\nvalue = [5, 19]\nclass = sim", fillcolor="#399de5bc"] ;
733 -> 751 ;
752 [label="gini = 0.0\nsamples = 10\nvalue = [0, 10]\nclass = sim", fillcolor="#399de5ff"] ;
751 -> 752 ;
753 [label="idade_do_modelo <= 18.5\ngini = 0.459\nsamples = 14\nvalue = [5, 9]\nclass = sim", fillcolor="#399de571"] ;
751 -> 753 ;
754 [label="gini = 0.0\nsamples = 3\nvalue = [3, 0]\nclass = não", fillcolor="#e58139ff"] ;
753 -> 754 ;
755 [label="preco <= 57824.904\ngini = 0.298\nsamples = 11\nvalue = [2, 9]\nclass = sim", fillcolor="#399de5c6"] ;
753 -> 755 ;
756 [label="gini = 0.0\nsamples = 1\nvalue = [1, 0]\nclass = não", fillcolor="#e58139ff"] ;
755 -> 756 ;
757 [label="km_por_ano <= 19397.375\ngini = 0.18\nsamples = 10\nvalue = [1, 9]\nclass = sim", fillcolor="#399de5e3"] ;
755 -> 757 ;
758 [label="gini = 0.0\nsamples = 9\nvalue = [0, 9]\nclass = sim", fillcolor="#399de5ff"] ;
757 -> 758 ;
759 [label="gini = 0.0\nsamples = 1\nvalue = [1, 0]\nclass = não", fillcolor="#e58139ff"] ;
757 -> 759 ;
760 [label="preco <= 50986.65\ngini = 0.266\nsamples = 222\nvalue = [35, 187]\nclass = sim", fillcolor="#399de5cf"] ;
720 -> 760 ;
761 [label="preco <= 50783.385\ngini = 0.375\nsamples = 72\nvalue = [18, 54]\nclass = sim", fillcolor="#399de5aa"] ;
760 -> 761 ;
762 [label="idade_do_modelo <= 20.5\ngini = 0.353\nsamples = 70\nvalue = [16, 54]\nclass = sim", fillcolor="#399de5b3"] ;
761 -> 762 ;
763 [label="preco <= 49718.059\ngini = 0.254\nsamples = 47\nvalue = [7, 40]\nclass = sim", fillcolor="#399de5d2"] ;
762 -> 763 ;
764 [label="preco <= 49618.49\ngini = 0.307\nsamples = 37\nvalue = [7, 30]\nclass = sim", fillcolor="#399de5c4"] ;
763 -> 764 ;
765 [label="preco <= 48464.975\ngini = 0.245\nsamples = 35\nvalue = [5, 30]\nclass = sim", fillcolor="#399de5d4"] ;
764 -> 765 ;
766 [label="preco <= 48351.066\ngini = 0.33\nsamples = 24\nvalue = [5, 19]\nclass = sim", fillcolor="#399de5bc"] ;
765 -> 766 ;
767 [label="km_por_ano <= 20964.068\ngini = 0.287\nsamples = 23\nvalue = [4, 19]\nclass = sim", fillcolor="#399de5c9"] ;
766 -> 767 ;
768 [label="gini = 0.0\nsamples = 1\nvalue = [1, 0]\nclass = não", fillcolor="#e58139ff"] ;
767 -> 768 ;
769 [label="km_por_ano <= 35414.33\ngini = 0.236\nsamples = 22\nvalue = [3, 19]\nclass = sim", fillcolor="#399de5d7"] ;
767 -> 769 ;
770 [label="preco <= 47607.709\ngini = 0.18\nsamples = 20\nvalue = [2, 18]\nclass = sim", fillcolor="#399de5e3"] ;
769 -> 770 ;
771 [label="gini = 0.0\nsamples = 13\nvalue = [0, 13]\nclass = sim", fillcolor="#399de5ff"] ;
770 -> 771 ;
772 [label="preco <= 47847.074\ngini = 0.408\nsamples = 7\nvalue = [2, 5]\nclass = sim", fillcolor="#399de599"] ;
770 -> 772 ;
773 [label="km_por_ano <= 27537.416\ngini = 0.444\nsamples = 3\nvalue = [2, 1]\nclass = não", fillcolor="#e581397f"] ;
772 -> 773 ;
774 [label="gini = 0.0\nsamples = 2\nvalue = [2, 0]\nclass = não", fillcolor="#e58139ff"] ;
773 -> 774 ;
775 [label="gini = 0.0\nsamples = 1\nvalue = [0, 1]\nclass = sim", fillcolor="#399de5ff"] ;
773 -> 775 ;
776 [label="gini = 0.0\nsamples = 4\nvalue = [0, 4]\nclass = sim", fillcolor="#399de5ff"] ;
772 -> 776 ;
777 [label="preco <= 46475.324\ngini = 0.5\nsamples = 2\nvalue = [1, 1]\nclass = não", fillcolor="#e5813900"] ;
769 -> 777 ;
778 [label="gini = 0.0\nsamples = 1\nvalue = [1, 0]\nclass = não", fillcolor="#e58139ff"] ;
777 -> 778 ;
779 [label="gini = 0.0\nsamples = 1\nvalue = [0, 1]\nclass = sim", fillcolor="#399de5ff"] ;
777 -> 779 ;
780 [label="gini = 0.0\nsamples = 1\nvalue = [1, 0]\nclass = não", fillcolor="#e58139ff"] ;
766 -> 780 ;
781 [label="gini = 0.0\nsamples = 11\nvalue = [0, 11]\nclass = sim", fillcolor="#399de5ff"] ;
765 -> 781 ;
782 [label="gini = 0.0\nsamples = 2\nvalue = [2, 0]\nclass = não", fillcolor="#e58139ff"] ;
764 -> 782 ;
783 [label="gini = 0.0\nsamples = 10\nvalue = [0, 10]\nclass = sim", fillcolor="#399de5ff"] ;
763 -> 783 ;
784 [label="km_por_ano <= 31148.776\ngini = 0.476\nsamples = 23\nvalue = [9, 14]\nclass = sim", fillcolor="#399de55b"] ;
762 -> 784 ;
785 [label="km_por_ano <= 30584.702\ngini = 0.444\nsamples = 21\nvalue = [7, 14]\nclass = sim", fillcolor="#399de57f"] ;
784 -> 785 ;
786 [label="km_por_ano <= 30294.217\ngini = 0.465\nsamples = 19\nvalue = [7, 12]\nclass = sim", fillcolor="#399de56a"] ;
785 -> 786 ;
787 [label="preco <= 47375.23\ngini = 0.444\nsamples = 18\nvalue = [6, 12]\nclass = sim", fillcolor="#399de57f"] ;
786 -> 787 ;
788 [label="gini = 0.0\nsamples = 2\nvalue = [0, 2]\nclass = sim", fillcolor="#399de5ff"] ;
787 -> 788 ;
789 [label="preco <= 47743.939\ngini = 0.469\nsamples = 16\nvalue = [6, 10]\nclass = sim", fillcolor="#399de566"] ;
787 -> 789 ;
790 [label="gini = 0.0\nsamples = 1\nvalue = [1, 0]\nclass = não", fillcolor="#e58139ff"] ;
789 -> 790 ;
791 [label="preco <= 48014.395\ngini = 0.444\nsamples = 15\nvalue = [5, 10]\nclass = sim", fillcolor="#399de57f"] ;
789 -> 791 ;
792 [label="gini = 0.0\nsamples = 2\nvalue = [0, 2]\nclass = sim", fillcolor="#399de5ff"] ;
791 -> 792 ;
793 [label="preco <= 48462.9\ngini = 0.473\nsamples = 13\nvalue = [5, 8]\nclass = sim", fillcolor="#399de560"] ;
791 -> 793 ;
794 [label="gini = 0.0\nsamples = 2\nvalue = [2, 0]\nclass = não", fillcolor="#e58139ff"] ;
793 -> 794 ;
795 [label="preco <= 49243.436\ngini = 0.397\nsamples = 11\nvalue = [3, 8]\nclass = sim", fillcolor="#399de59f"] ;
793 -> 795 ;
796 [label="gini = 0.0\nsamples = 3\nvalue = [0, 3]\nclass = sim", fillcolor="#399de5ff"] ;
795 -> 796 ;
797 [label="km_por_ano <= 27501.207\ngini = 0.469\nsamples = 8\nvalue = [3, 5]\nclass = sim", fillcolor="#399de566"] ;
795 -> 797 ;
798 [label="preco <= 49927.945\ngini = 0.408\nsamples = 7\nvalue = [2, 5]\nclass = sim", fillcolor="#399de599"] ;
797 -> 798 ;
799 [label="km_por_ano <= 25932.905\ngini = 0.444\nsamples = 3\nvalue = [2, 1]\nclass = não", fillcolor="#e581397f"] ;
798 -> 799 ;
800 [label="gini = 0.0\nsamples = 2\nvalue = [2, 0]\nclass = não", fillcolor="#e58139ff"] ;
799 -> 800 ;
801 [label="gini = 0.0\nsamples = 1\nvalue = [0, 1]\nclass = sim", fillcolor="#399de5ff"] ;
799 -> 801 ;
802 [label="gini = 0.0\nsamples = 4\nvalue = [0, 4]\nclass = sim", fillcolor="#399de5ff"] ;
798 -> 802 ;
803 [label="gini = 0.0\nsamples = 1\nvalue = [1, 0]\nclass = não", fillcolor="#e58139ff"] ;
797 -> 803 ;
804 [label="gini = 0.0\nsamples = 1\nvalue = [1, 0]\nclass = não", fillcolor="#e58139ff"] ;
786 -> 804 ;
805 [label="gini = 0.0\nsamples = 2\nvalue = [0, 2]\nclass = sim", fillcolor="#399de5ff"] ;
785 -> 805 ;
806 [label="gini = 0.0\nsamples = 2\nvalue = [2, 0]\nclass = não", fillcolor="#e58139ff"] ;
784 -> 806 ;
807 [label="gini = 0.0\nsamples = 2\nvalue = [2, 0]\nclass = não", fillcolor="#e58139ff"] ;
761 -> 807 ;
808 [label="km_por_ano <= 34532.412\ngini = 0.201\nsamples = 150\nvalue = [17, 133]\nclass = sim", fillcolor="#399de5de"] ;
760 -> 808 ;
809 [label="idade_do_modelo <= 19.5\ngini = 0.185\nsamples = 145\nvalue = [15, 130]\nclass = sim", fillcolor="#399de5e2"] ;
808 -> 809 ;
810 [label="km_por_ano <= 31567.204\ngini = 0.253\nsamples = 74\nvalue = [11, 63]\nclass = sim", fillcolor="#399de5d2"] ;
809 -> 810 ;
811 [label="preco <= 59719.805\ngini = 0.208\nsamples = 68\nvalue = [8, 60]\nclass = sim", fillcolor="#399de5dd"] ;
810 -> 811 ;
812 [label="km_por_ano <= 23621.088\ngini = 0.187\nsamples = 67\nvalue = [7, 60]\nclass = sim", fillcolor="#399de5e1"] ;
811 -> 812 ;
813 [label="km_por_ano <= 23421.529\ngini = 0.287\nsamples = 23\nvalue = [4, 19]\nclass = sim", fillcolor="#399de5c9"] ;
812 -> 813 ;
814 [label="km_por_ano <= 22447.879\ngini = 0.236\nsamples = 22\nvalue = [3, 19]\nclass = sim", fillcolor="#399de5d7"] ;
813 -> 814 ;
815 [label="km_por_ano <= 21320.536\ngini = 0.117\nsamples = 16\nvalue = [1, 15]\nclass = sim", fillcolor="#399de5ee"] ;
814 -> 815 ;
816 [label="gini = 0.0\nsamples = 9\nvalue = [0, 9]\nclass = sim", fillcolor="#399de5ff"] ;
815 -> 816 ;
817 [label="km_por_ano <= 21524.117\ngini = 0.245\nsamples = 7\nvalue = [1, 6]\nclass = sim", fillcolor="#399de5d4"] ;
815 -> 817 ;
818 [label="gini = 0.0\nsamples = 1\nvalue = [1, 0]\nclass = não", fillcolor="#e58139ff"] ;
817 -> 818 ;
819 [label="gini = 0.0\nsamples = 6\nvalue = [0, 6]\nclass = sim", fillcolor="#399de5ff"] ;
817 -> 819 ;
820 [label="km_por_ano <= 22520.299\ngini = 0.444\nsamples = 6\nvalue = [2, 4]\nclass = sim", fillcolor="#399de57f"] ;
814 -> 820 ;
821 [label="gini = 0.0\nsamples = 1\nvalue = [1, 0]\nclass = não", fillcolor="#e58139ff"] ;
820 -> 821 ;
822 [label="preco <= 55716.459\ngini = 0.32\nsamples = 5\nvalue = [1, 4]\nclass = sim", fillcolor="#399de5bf"] ;
820 -> 822 ;
823 [label="preco <= 54646.85\ngini = 0.5\nsamples = 2\nvalue = [1, 1]\nclass = não", fillcolor="#e5813900"] ;
822 -> 823 ;
824 [label="gini = 0.0\nsamples = 1\nvalue = [0, 1]\nclass = sim", fillcolor="#399de5ff"] ;
823 -> 824 ;
825 [label="gini = 0.0\nsamples = 1\nvalue = [1, 0]\nclass = não", fillcolor="#e58139ff"] ;
823 -> 825 ;
826 [label="gini = 0.0\nsamples = 3\nvalue = [0, 3]\nclass = sim", fillcolor="#399de5ff"] ;
822 -> 826 ;
827 [label="gini = 0.0\nsamples = 1\nvalue = [1, 0]\nclass = não", fillcolor="#e58139ff"] ;
813 -> 827 ;
828 [label="preco <= 58972.27\ngini = 0.127\nsamples = 44\nvalue = [3, 41]\nclass = sim", fillcolor="#399de5ec"] ;
812 -> 828 ;
829 [label="km_por_ano <= 26344.896\ngini = 0.095\nsamples = 40\nvalue = [2, 38]\nclass = sim", fillcolor="#399de5f2"] ;
828 -> 829 ;
830 [label="gini = 0.0\nsamples = 18\nvalue = [0, 18]\nclass = sim", fillcolor="#399de5ff"] ;
829 -> 830 ;
831 [label="km_por_ano <= 26856.666\ngini = 0.165\nsamples = 22\nvalue = [2, 20]\nclass = sim", fillcolor="#399de5e6"] ;
829 -> 831 ;
832 [label="gini = 0.0\nsamples = 1\nvalue = [1, 0]\nclass = não", fillcolor="#e58139ff"] ;
831 -> 832 ;
833 [label="preco <= 52434.805\ngini = 0.091\nsamples = 21\nvalue = [1, 20]\nclass = sim", fillcolor="#399de5f2"] ;
831 -> 833 ;
834 [label="km_por_ano <= 28683.267\ngini = 0.5\nsamples = 2\nvalue = [1, 1]\nclass = não", fillcolor="#e5813900"] ;
833 -> 834 ;
835 [label="gini = 0.0\nsamples = 1\nvalue = [1, 0]\nclass = não", fillcolor="#e58139ff"] ;
834 -> 835 ;
836 [label="gini = 0.0\nsamples = 1\nvalue = [0, 1]\nclass = sim", fillcolor="#399de5ff"] ;
834 -> 836 ;
837 [label="gini = 0.0\nsamples = 19\nvalue = [0, 19]\nclass = sim", fillcolor="#399de5ff"] ;
833 -> 837 ;
838 [label="idade_do_modelo <= 18.5\ngini = 0.375\nsamples = 4\nvalue = [1, 3]\nclass = sim", fillcolor="#399de5aa"] ;
828 -> 838 ;
839 [label="gini = 0.0\nsamples = 3\nvalue = [0, 3]\nclass = sim", fillcolor="#399de5ff"] ;
838 -> 839 ;
840 [label="gini = 0.0\nsamples = 1\nvalue = [1, 0]\nclass = não", fillcolor="#e58139ff"] ;
838 -> 840 ;
841 [label="gini = 0.0\nsamples = 1\nvalue = [1, 0]\nclass = não", fillcolor="#e58139ff"] ;
811 -> 841 ;
842 [label="km_por_ano <= 32037.132\ngini = 0.5\nsamples = 6\nvalue = [3, 3]\nclass = não", fillcolor="#e5813900"] ;
810 -> 842 ;
843 [label="gini = 0.0\nsamples = 2\nvalue = [2, 0]\nclass = não", fillcolor="#e58139ff"] ;
842 -> 843 ;
844 [label="preco <= 56039.951\ngini = 0.375\nsamples = 4\nvalue = [1, 3]\nclass = sim", fillcolor="#399de5aa"] ;
842 -> 844 ;
845 [label="gini = 0.0\nsamples = 3\nvalue = [0, 3]\nclass = sim", fillcolor="#399de5ff"] ;
844 -> 845 ;
846 [label="gini = 0.0\nsamples = 1\nvalue = [1, 0]\nclass = não", fillcolor="#e58139ff"] ;
844 -> 846 ;
